{"learner":{"attributes":{"scikit_learn":"{\"_estimator_type\": \"classifier\"}"},"feature_names":[],"feature_types":[],"gradient_booster":{"model":{"gbtree_model_param":{"num_parallel_tree":"1","num_trees":"500"},"iteration_indptr":[0,1,2,3,4,5,6,7,8,9,10,11,12,13,14,15,16,17,18,19,20,21,22,23,24,25,26,27,28,29,30,31,32,33,34,35,36,37,38,39,40,41,42,43,44,45,46,47,48,49,50,51,52,53,54,55,56,57,58,59,60,61,62,63,64,65,66,67,68,69,70,71,72,73,74,75,76,77,78,79,80,81,82,83,84,85,86,87,88,89,90,91,92,93,94,95,96,97,98,99,100,101,102,103,104,105,106,107,108,109,110,111,112,113,114,115,116,117,118,119,120,121,122,123,124,125,126,127,128,129,130,131,132,133,134,135,136,137,138,139,140,141,142,143,144,145,146,147,148,149,150,151,152,153,154,155,156,157,158,159,160,161,162,163,164,165,166,167,168,169,170,171,172,173,174,175,176,177,178,179,180,181,182,183,184,185,186,187,188,189,190,191,192,193,194,195,196,197,198,199,200,201,202,203,204,205,206,207,208,209,210,211,212,213,214,215,216,217,218,219,220,221,222,223,224,225,226,227,228,229,230,231,232,233,234,235,236,237,238,239,240,241,242,243,244,245,246,247,248,249,250,251,252,253,254,255,256,257,258,259,260,261,262,263,264,265,266,267,268,269,270,271,272,273,274,275,276,277,278,279,280,281,282,283,284,285,286,287,288,289,290,291,292,293,294,295,296,297,298,299,300,301,302,303,304,305,306,307,308,309,310,311,312,313,314,315,316,317,318,319,320,321,322,323,324,325,326,327,328,329,330,331,332,333,334,335,336,337,338,339,340,341,342,343,344,345,346,347,348,349,350,351,352,353,354,355,356,357,358,359,360,361,362,363,364,365,366,367,368,369,370,371,372,373,374,375,376,377,378,379,380,381,382,383,384,385,386,387,388,389,390,391,392,393,394,395,396,397,398,399,400,401,402,403,404,405,406,407,408,409,410,411,412,413,414,415,416,417,418,419,420,421,422,423,424,425,426,427,428,429,430,431,432,433,434,435,436,437,438,439,440,441,442,443,444,445,446,447,448,449,450,451,452,453,454,455,456,457,458,459,460,461,462,463,464,465,466,467,468,469,470,471,472,473,474,475,476,477,478,479,480,481,482,483,484,485,486,487,488,489,490,491,492,493,494,495,496,497,498,499,500],"tree_info":[0,0,0,0,0,0,0,0,0,0,0,0,0,0,0,0,0,0,0,0,0,0,0,0,0,0,0,0,0,0,0,0,0,0,0,0,0,0,0,0,0,0,0,0,0,0,0,0,0,0,0,0,0,0,0,0,0,0,0,0,0,0,0,0,0,0,0,0,0,0,0,0,0,0,0,0,0,0,0,0,0,0,0,0,0,0,0,0,0,0,0,0,0,0,0,0,0,0,0,0,0,0,0,0,0,0,0,0,0,0,0,0,0,0,0,0,0,0,0,0,0,0,0,0,0,0,0,0,0,0,0,0,0,0,0,0,0,0,0,0,0,0,0,0,0,0,0,0,0,0,0,0,0,0,0,0,0,0,0,0,0,0,0,0,0,0,0,0,0,0,0,0,0,0,0,0,0,0,0,0,0,0,0,0,0,0,0,0,0,0,0,0,0,0,0,0,0,0,0,0,0,0,0,0,0,0,0,0,0,0,0,0,0,0,0,0,0,0,0,0,0,0,0,0,0,0,0,0,0,0,0,0,0,0,0,0,0,0,0,0,0,0,0,0,0,0,0,0,0,0,0,0,0,0,0,0,0,0,0,0,0,0,0,0,0,0,0,0,0,0,0,0,0,0,0,0,0,0,0,0,0,0,0,0,0,0,0,0,0,0,0,0,0,0,0,0,0,0,0,0,0,0,0,0,0,0,0,0,0,0,0,0,0,0,0,0,0,0,0,0,0,0,0,0,0,0,0,0,0,0,0,0,0,0,0,0,0,0,0,0,0,0,0,0,0,0,0,0,0,0,0,0,0,0,0,0,0,0,0,0,0,0,0,0,0,0,0,0,0,0,0,0,0,0,0,0,0,0,0,0,0,0,0,0,0,0,0,0,0,0,0,0,0,0,0,0,0,0,0,0,0,0,0,0,0,0,0,0,0,0,0,0,0,0,0,0,0,0,0,0,0,0,0,0,0,0,0,0,0,0,0,0,0,0,0,0,0,0,0,0,0,0,0,0,0,0,0,0,0,0,0,0,0,0,0,0,0,0,0,0,0,0,0,0,0,0,0,0,0,0,0,0,0,0,0,0,0,0,0,0,0,0,0,0,0,0,0,0,0,0,0,0,0,0,0,0,0,0,0,0],"trees":[{"base_weights":[2.1956543E-2,-1.5755398E0,1.1279519E0,-1.8920327E0,-2.8770694E-1,1.4491929E0,-1.0410386E-1,-5.629844E-1,-1.9832603E0,2.974742E-1,-1.1916604E0,2.7451727E-1,1.5628716E0,-8.2521343E-1,8.709713E-1,8.045795E-1,-1.1599292E0,-4.131265E-1,-2.0478554E0,1.1452082E0,-3.3509493E-1,-1.8486881E0,-3.8375786E-1,6.197772E-1,-1.1356487E0,1.6889191E0,9.062653E-1,-1.5327299E0,-2.250679E-1,-3.265726E-1,1.285831E0,-2.8940162E-3,6.408316E-2,-1.5749989E0,2.6167933E-2,6.847264E-1,-1.4315003E0,1.7087065E-2,-2.0691593E0,-2.8565934E-2,1.3413618E0,1.11420184E-1,-1.449275E0,-1.7378679E-2,-9.951698E-2,-1.1636857E0,6.4350814E-1,-6.5847266E-1,9.755808E-1,7.490471E-3,-8.160887E-2,1.70491E0,-1.6261412E-2,1.2100691E0,1.7444152E-2,-1.6903245E0,5.8716754E-3,3.936507E-1,-7.9167855E-1,8.310461E-1,-1.2181269E0,1.4630207E0,-4.6489444E-1,-9.125945E-2,-1.1702715E-2,6.0075756E-2,-2.2356244E-2,-1.1818914E-2,-8.493125E-2,-1.04278445E-1,-7.099067E-3,7.297633E-2,2.2598597E-5,-3.3279575E-2,3.64724E-2,-8.91536E-2,2.2598597E-5,1.186411E-2,-7.4293785E-2,5.6773484E-2,-2.8565934E-2,-7.386219E-2,4.5876842E-2,-3.7169113E-4,7.017692E-2,2.063276E-3,8.584518E-2,-2.8565934E-2,6.4480975E-2,-3.2485604E-2,4.6315268E-2,-2.1061224E-3,-9.154007E-2,-5.19596E-2,3.709765E-2,-5.3625643E-2,2.0847654E-2,6.408316E-2,-6.6904025E-3,-7.4586E-2,2.2598597E-5,7.947434E-2,-2.8940162E-3,2.3705622E-2,-5.9184965E-2],"categories":[],"categories_nodes":[],"categories_segments":[],"categories_sizes":[],"default_left":[0,0,0,0,0,0,0,0,0,0,0,0,0,0,0,0,0,0,0,0,0,0,0,0,0,0,0,0,0,0,0,0,0,0,0,0,0,0,0,0,0,0,0,0,0,0,0,0,0,0,0,0,0,0,0,0,0,0,0,0,0,0,0,0,0,0,0,0,0,0,0,0,0,0,0,0,0,0,0,0,0,0,0,0,0,0,0,0,0,0,0,0,0,0,0,0,0,0,0,0,0,0,0,0,0],"id":0,"left_children":[1,3,5,7,9,11,13,15,17,19,21,23,25,27,29,31,33,35,37,39,41,43,45,47,49,51,53,55,57,59,61,-1,-1,63,-1,65,67,-1,69,-1,71,73,75,-1,-1,77,79,81,83,-1,-1,85,-1,87,89,91,-1,93,95,97,99,101,103,-1,-1,-1,-1,-1,-1,-1,-1,-1,-1,-1,-1,-1,-1,-1,-1,-1,-1,-1,-1,-1,-1,-1,-1,-1,-1,-1,-1,-1,-1,-1,-1,-1,-1,-1,-1,-1,-1,-1,-1,-1,-1],"loss_changes":[1.1880828E3,1.1158374E2,1.5741052E2,2.5636414E1,2.9686043E1,4.166504E1,5.9153976E1,1.3643403E1,2.0055298E1,1.8862928E1,1.0962973E1,1.4836512E1,2.2239075E1,2.0158932E1,1.8214817E1,2.263756E0,8.682982E0,1.1484991E1,1.0770813E1,5.800709E0,1.0364188E1,1.831173E0,9.661654E0,1.1541887E1,4.1138225E0,8.277649E0,1.305143E1,5.917061E0,9.881855E0,1.1346747E1,8.995316E0,0E0,0E0,2.683611E0,0E0,3.5776422E0,1.2579031E0,0E0,5.904846E0,0E0,2.1728172E0,7.962117E0,2.874648E0,0E0,0E0,3.3675718E0,3.90283E0,8.859403E0,8.066566E0,0E0,0E0,4.679199E0,0E0,5.8475685E0,8.694729E0,4.585434E0,0E0,7.6168003E0,5.396531E0,2.3240893E0,2.0217829E0,4.8202553E0,2.7362285E0,0E0,0E0,0E0,0E0,0E0,0E0,0E0,0E0,0E0,0E0,0E0,0E0,0E0,0E0,0E0,0E0,0E0,0E0,0E0,0E0,0E0,0E0,0E0,0E0,0E0,0E0,0E0,0E0,0E0,0E0,0E0,0E0,0E0,0E0,0E0,0E0,0E0,0E0,0E0,0E0,0E0,0E0],"parents":[2147483647,0,0,1,1,2,2,3,3,4,4,5,5,6,6,7,7,8,8,9,9,10,10,11,11,12,12,13,13,14,14,15,15,16,16,17,17,18,18,19,19,20,20,21,21,22,22,23,23,24,24,25,25,26,26,27,27,28,28,29,29,30,30,33,33,35,35,36,36,38,38,40,40,41,41,42,42,45,45,46,46,47,47,48,48,51,51,53,53,54,54,55,55,57,57,58,58,59,59,60,60,61,61,62,62],"right_children":[2,4,6,8,10,12,14,16,18,20,22,24,26,28,30,32,34,36,38,40,42,44,46,48,50,52,54,56,58,60,62,-1,-1,64,-1,66,68,-1,70,-1,72,74,76,-1,-1,78,80,82,84,-1,-1,86,-1,88,90,92,-1,94,96,98,100,102,104,-1,-1,-1,-1,-1,-1,-1,-1,-1,-1,-1,-1,-1,-1,-1,-1,-1,-1,-1,-1,-1,-1,-1,-1,-1,-1,-1,-1,-1,-1,-1,-1,-1,-1,-1,-1,-1,-1,-1,-1,-1,-1],"split_conditions":[9.269973E-1,-1.220029E0,1.0801076E0,-4.2280936E-1,2.331759E-1,-1.7725894E0,-7.6034707E-3,-1.1637214E0,-6.0305692E-2,-1.1427989E0,-1.9417514E0,-4.6622983E-1,2.7948368E-1,2.075816E0,1.1318197E-1,-1.5215406E-1,8.7644655E-1,8.910189E-2,-1.2246735E0,-1.9869918E0,1.129827E-2,-1.7425284E0,-1.092731E0,-1.2028004E-1,-3.946882E-1,1.568593E0,2.8537696E-2,5.5063527E-2,4.262322E-2,-1.7448807E0,1.6935631E0,-2.8940162E-3,6.408316E-2,-3.4729898E-1,2.6167933E-2,3.9259714E-1,-1.5773484E-1,1.7087065E-2,4.8988774E-1,-2.8565934E-2,-5.6711966E-1,-1.7847219E-1,2.5910387E0,-1.7378679E-2,-9.951698E-2,-9.784231E-1,1.1796678E0,-7.2630477E-1,-2.513196E-1,7.490471E-3,-8.160887E-2,-1.0101665E0,-1.6261412E-2,-4.290126E-2,-9.6126497E-1,-1.5731113E-1,5.8716754E-3,-1.217026E0,-1.2873685E-1,1.8364574E0,8.113343E-1,1.4586492E0,1.0175206E-1,-9.125945E-2,-1.1702715E-2,6.0075756E-2,-2.2356244E-2,-1.1818914E-2,-8.493125E-2,-1.04278445E-1,-7.099067E-3,7.297633E-2,2.2598597E-5,-3.3279575E-2,3.64724E-2,-8.91536E-2,2.2598597E-5,1.186411E-2,-7.4293785E-2,5.6773484E-2,-2.8565934E-2,-7.386219E-2,4.5876842E-2,-3.7169113E-4,7.017692E-2,2.063276E-3,8.584518E-2,-2.8565934E-2,6.4480975E-2,-3.2485604E-2,4.6315268E-2,-2.1061224E-3,-9.154007E-2,-5.19596E-2,3.709765E-2,-5.3625643E-2,2.0847654E-2,6.408316E-2,-6.6904025E-3,-7.4586E-2,2.2598597E-5,7.947434E-2,-2.8940162E-3,2.3705622E-2,-5.9184965E-2],"split_indices":[121,113,108,59,39,0,342,368,356,368,4,59,99,121,383,382,87,259,119,36,69,122,349,227,323,72,394,323,59,78,27,0,0,261,0,392,3,0,290,0,285,313,24,0,0,322,78,335,245,0,0,61,0,401,142,362,0,377,245,44,62,117,336,0,0,0,0,0,0,0,0,0,0,0,0,0,0,0,0,0,0,0,0,0,0,0,0,0,0,0,0,0,0,0,0,0,0,0,0,0,0,0,0,0,0],"split_type":[0,0,0,0,0,0,0,0,0,0,0,0,0,0,0,0,0,0,0,0,0,0,0,0,0,0,0,0,0,0,0,0,0,0,0,0,0,0,0,0,0,0,0,0,0,0,0,0,0,0,0,0,0,0,0,0,0,0,0,0,0,0,0,0,0,0,0,0,0,0,0,0,0,0,0,0,0,0,0,0,0,0,0,0,0,0,0,0,0,0,0,0,0,0,0,0,0,0,0,0,0,0,0,0,0],"sum_hessian":[6.704342E2,2.741002E2,3.9633405E2,2.1965054E2,5.444963E1,3.1422745E2,8.210658E1,1.4569288E1,2.0508125E2,3.3459976E1,2.0989653E1,2.802736E1,2.862001E2,4.7288452E1,3.481813E1,4.321399E0,1.02478895E1,8.395862E0,1.966854E2,1.3951946E1,1.950803E1,1.0865232E1,1.0124421E1,2.296515E1,5.0622106E0,2.3878818E2,4.7411922E1,2.0989653E1,2.6298801E1,9.013204E0,2.5804926E1,1.8520283E0,2.4693708E0,8.272392E0,1.9754968E0,4.197931E0,4.197931E0,1.6050911E0,1.950803E2,1.2346854E0,1.271726E1,1.4569288E1,4.9387417E0,1.2346854E0,9.630547E0,5.679553E0,4.4448676E0,4.8152733E0,1.8149876E1,1.6050911E0,3.4571195E0,2.3705962E2,1.7285597E0,3.5065067E1,1.2346855E1,1.9137625E1,1.8520283E0,1.271726E1,1.358154E1,3.9509935E0,5.0622106E0,2.3582493E1,2.2224338E0,6.6673017E0,1.6050911E0,2.8397765E0,1.358154E0,1.1112169E0,3.0867138E0,1.9335175E2,1.7285597E0,1.1606044E1,1.1112169E0,6.4203644E0,8.148924E0,3.827525E0,1.1112169E0,1.1112169E0,4.5683365E0,3.2101822E0,1.2346854E0,3.2101822E0,1.6050911E0,5.803022E0,1.2346855E1,1.7285597E0,2.3533105E2,1.2346854E0,3.3830383E1,7.284644E0,5.0622106E0,1.6050911E0,1.7532534E1,2.0989654E0,1.0618295E1,1.1112169E1,2.4693708E0,2.4693708E0,1.4816226E0,3.9509935E0,1.1112169E0,2.1730465E1,1.8520283E0,1.1112169E0,1.1112169E0],"tree_param":{"num_deleted":"0","num_feature":"512","num_nodes":"105","size_leaf_vector":"1"}},{"base_weights":[-5.3655086E-3,-1.5298395E0,1.0291711E0,5.093326E-1,-1.6834248E0,1.3375276E0,-2.580547E-1,1.2402667E0,-3.2377118E-1,-1.7960441E0,-1.2650369E-2,1.5336385E0,6.8054634E-1,-8.8636494E-1,7.366901E-1,7.777311E-2,8.313668E-2,5.138269E-1,-1.283405E0,-6.876438E-1,-1.9114048E0,9.140789E-1,-8.252176E-1,4.0796316E-1,1.5969716E0,-2.9256418E-3,9.6349406E-1,-2.9634333E-1,-1.4352825E0,1.0632408E0,-7.259822E-1,-3.8430016E-2,4.739022E-2,1.0583534E0,-3.0723853E-2,-2.1061339E-4,-8.258955E-2,6.38712E-1,-1.175896E0,-2.0084352E0,-1.2506784E0,7.122146E-2,-3.302557E-2,-1.278537E0,3.8762905E-2,-5.200462E-1,8.84425E-1,1.6360326E0,1.7899238E-1,3.7473476E-1,-1.3744279E0,3.6192074E-1,1.3582114E0,6.488804E-2,-5.44102E-1,-1.6306434E0,1.7074996E-1,-5.22474E-2,1.2257167E0,2.7096808E-2,-1.149863E0,6.308498E-2,1.1719014E-2,-2.7084162E-2,5.8309443E-2,2.7785057E-2,-8.266888E-2,-1.01609185E-1,-3.541759E-2,-8.241222E-2,-9.5036365E-3,3.4897055E-2,-8.543327E-2,2.7675455E-2,-6.639426E-2,7.054215E-2,-4.3320484E-3,8.2624845E-2,-1.6251171E-2,4.4797093E-2,-4.4621862E-2,-5.9296545E-2,3.4737926E-2,-8.2393505E-2,-9.808506E-3,-5.5970978E-2,2.7387232E-2,7.124578E-2,-1.339786E-2,-4.6182003E-2,3.4955684E-2,-8.593493E-2,8.213007E-4,5.3094495E-2,-4.7854844E-2,6.8065405E-2,-2.0875983E-2,1.2294224E-2,-8.082283E-2],"categories":[],"categories_nodes":[],"categories_segments":[],"categories_sizes":[],"default_left":[0,0,0,0,0,0,0,0,0,0,0,0,0,0,0,0,0,0,0,0,0,0,0,0,0,0,0,0,0,0,0,0,0,0,0,0,0,0,0,0,0,0,0,0,0,0,0,0,0,0,0,0,0,0,0,0,0,0,0,0,0,0,0,0,0,0,0,0,0,0,0,0,0,0,0,0,0,0,0,0,0,0,0,0,0,0,0,0,0,0,0,0,0,0,0,0,0,0,0],"id":1,"left_children":[1,3,5,7,9,11,13,15,17,19,21,23,25,27,29,-1,31,33,35,37,39,41,43,45,47,49,51,53,55,57,59,-1,-1,61,-1,-1,-1,63,65,67,69,-1,-1,71,-1,73,75,77,79,81,83,85,87,-1,89,91,93,-1,95,-1,97,-1,-1,-1,-1,-1,-1,-1,-1,-1,-1,-1,-1,-1,-1,-1,-1,-1,-1,-1,-1,-1,-1,-1,-1,-1,-1,-1,-1,-1,-1,-1,-1,-1,-1,-1,-1,-1,-1],"loss_changes":[1.0560277E3,8.563568E1,1.5867715E2,1.24146805E1,4.7387756E1,4.043921E1,4.935843E1,3.7787762E0,8.7073965E0,2.8868347E1,1.3494493E1,1.6968872E1,1.4664024E1,1.5190063E1,1.5441614E1,0E0,3.1959417E0,4.3737316E0,2.3267145E0,1.6172691E1,1.1158752E1,7.673749E0,7.9127674E0,6.8748255E0,1.2648376E1,1.2528351E1,1.2240444E1,1.0381452E1,8.0335655E0,1.00199375E1,3.9551558E0,0E0,0E0,4.507141E-1,0E0,0E0,0E0,5.0246787E0,1.5601328E1,4.25E0,1.231765E1,0E0,0E0,7.8336945E0,0E0,5.5496044E0,5.2118716E0,7.874756E0,6.4736605E0,1.0299252E1,1.3591595E0,6.8360357E0,3.8543243E0,0E0,1.0982374E1,3.2380028E0,4.6202874E0,0E0,5.948765E0,0E0,3.6320047E0,0E0,0E0,0E0,0E0,0E0,0E0,0E0,0E0,0E0,0E0,0E0,0E0,0E0,0E0,0E0,0E0,0E0,0E0,0E0,0E0,0E0,0E0,0E0,0E0,0E0,0E0,0E0,0E0,0E0,0E0,0E0,0E0,0E0,0E0,0E0,0E0,0E0,0E0],"parents":[2147483647,0,0,1,1,2,2,3,3,4,4,5,5,6,6,7,7,8,8,9,9,10,10,11,11,12,12,13,13,14,14,16,16,17,17,18,18,19,19,20,20,21,21,22,22,23,23,24,24,25,25,26,26,27,27,28,28,29,29,30,30,33,33,37,37,38,38,39,39,40,40,43,43,45,45,46,46,47,47,48,48,49,49,50,50,51,51,52,52,54,54,55,55,56,56,58,58,60,60],"right_children":[2,4,6,8,10,12,14,16,18,20,22,24,26,28,30,-1,32,34,36,38,40,42,44,46,48,50,52,54,56,58,60,-1,-1,62,-1,-1,-1,64,66,68,70,-1,-1,72,-1,74,76,78,80,82,84,86,88,-1,90,92,94,-1,96,-1,98,-1,-1,-1,-1,-1,-1,-1,-1,-1,-1,-1,-1,-1,-1,-1,-1,-1,-1,-1,-1,-1,-1,-1,-1,-1,-1,-1,-1,-1,-1,-1,-1,-1,-1,-1,-1,-1,-1],"split_conditions":[7.1001756E-1,-1.3645505E0,1.1040428E0,-1.1055532E-1,4.5279804E-1,3.2439858E-2,-4.782467E-3,9.8041403E-1,-2.0306486E-1,-1.0065909E-1,1.4967358E-1,-1.7694919E0,1.2593064E0,-1.5444497E0,1.686435E0,7.777311E-2,1.0411206E0,-1.08786404E-1,-1.2105477E0,4.4775602E-1,5.7647735E-2,5.604511E-1,1.2597883E0,6.019085E-1,4.1875267E0,9.678779E-1,5.0357616E-1,-8.850957E-1,1.4981617E0,-1.571458E-1,8.339699E-2,-3.8430016E-2,4.739022E-2,3.22507E-1,-3.0723853E-2,-2.1061339E-4,-8.258955E-2,-1.6299593E0,-1.8420668E-1,1.8846906E0,2.8846316E-2,7.122146E-2,-3.302557E-2,-1.977082E-1,3.8762905E-2,-6.804972E-1,8.134345E-1,9.0725046E-1,-7.664399E-2,-8.106158E-1,3.2341665E-1,-6.464476E-1,-1.432506E-1,6.488804E-2,-2.9903308E-1,5.085564E-1,7.4118185E-1,-5.22474E-2,2.0683809E-1,2.7096808E-2,-5.1459957E-2,6.308498E-2,1.1719014E-2,-2.7084162E-2,5.8309443E-2,2.7785057E-2,-8.266888E-2,-1.01609185E-1,-3.541759E-2,-8.241222E-2,-9.5036365E-3,3.4897055E-2,-8.543327E-2,2.7675455E-2,-6.639426E-2,7.054215E-2,-4.3320484E-3,8.2624845E-2,-1.6251171E-2,4.4797093E-2,-4.4621862E-2,-5.9296545E-2,3.4737926E-2,-8.2393505E-2,-9.808506E-3,-5.5970978E-2,2.7387232E-2,7.124578E-2,-1.339786E-2,-4.6182003E-2,3.4955684E-2,-8.593493E-2,8.213007E-4,5.3094495E-2,-4.7854844E-2,6.8065405E-2,-2.0875983E-2,1.2294224E-2,-8.082283E-2],"split_indices":[121,108,108,350,114,99,342,318,463,330,264,129,124,66,27,0,318,378,340,155,121,176,40,61,43,99,344,376,56,266,264,0,0,269,0,0,0,23,105,19,342,0,0,295,0,171,317,154,327,293,358,423,369,0,348,264,267,0,264,0,449,0,0,0,0,0,0,0,0,0,0,0,0,0,0,0,0,0,0,0,0,0,0,0,0,0,0,0,0,0,0,0,0,0,0,0,0,0,0],"split_type":[0,0,0,0,0,0,0,0,0,0,0,0,0,0,0,0,0,0,0,0,0,0,0,0,0,0,0,0,0,0,0,0,0,0,0,0,0,0,0,0,0,0,0,0,0,0,0,0,0,0,0,0,0,0,0,0,0,0,0,0,0,0,0,0,0,0,0,0,0,0,0,0,0,0,0,0,0,0,0,0,0,0,0,0,0,0,0,0,0,0,0,0,0,0,0,0,0,0,0],"sum_hessian":[6.6759247E2,2.6969543E2,3.97897E2,1.872779E1,2.5096765E2,3.2096933E2,7.692768E1,9.715258E0,9.012533E0,2.3504909E2,1.5918558E1,2.4615648E2,7.4812836E1,4.7214535E1,2.9713144E1,7.364869E0,2.3503883E0,5.060303E0,3.9522305E0,2.2813658E1,2.1223543E2,7.3784933E0,8.540065E0,1.3508026E1,2.3264845E2,2.2193405E1,5.261943E1,2.3497435E1,2.37171E1,2.4513449E1,5.199695E0,1.2400177E0,1.1103705E0,3.454929E0,1.6053741E0,1.1098378E0,2.8423927E0,6.0555E0,1.6758158E1,1.8328023E2,2.8955208E1,5.644412E0,1.734081E0,6.811831E0,1.7282338E0,4.551517E0,8.95651E0,2.2626187E2,6.386589E0,1.7971498E1,4.2219076E0,2.1606585E1,3.1012844E1,2.5906875E0,2.0906746E1,2.1131323E1,2.5857778E0,1.3654046E0,2.3148045E1,1.2330043E0,3.9666908E0,2.3449788E0,1.1099503E0,1.8619249E0,4.193575E0,3.5867853E0,1.3171372E1,1.7943933E2,3.8408976E0,2.0657663E1,8.2975445E0,1.1061838E0,5.705647E0,2.0895264E0,2.4619906E0,5.5143056E0,3.442204E0,2.2453412E2,1.7277585E0,3.9243739E0,2.4622152E0,2.5976644E0,1.5373835E1,3.1031778E0,1.1187296E0,1.8483027E0,1.9758282E1,2.9909729E1,1.1031165E0,1.6213903E1,4.692844E0,2.0017654E1,1.1136681E0,1.477136E0,1.1086417E0,2.1542074E1,1.6059711E0,1.1123321E0,2.8543587E0],"tree_param":{"num_deleted":"0","num_feature":"512","num_nodes":"99","size_leaf_vector":"1"}},{"base_weights":[-1.2363279E-2,-1.4049683E0,1.0130678E0,-1.6828128E0,-2.8365123E-1,1.4619853E0,1.7468904E-1,-5.125905E-1,-1.7708645E0,1.8797408E-1,-1.3189907E0,-7.6907814E-1,1.4919813E0,6.0803765E-1,-6.042119E-1,-8.697612E-1,6.1896957E-2,1.6323468E-1,-1.8098489E0,6.281261E-1,-8.215976E-1,1.0073212E-1,-1.7077253E0,-6.79438E-2,1.0427734E-2,1.542848E0,2.9849517E-1,1.1898285E0,-1.5150669E-1,-1.1811739E0,5.2462685E-1,-1.2326897E0,6.867808E-1,-4.7642924E-2,4.8059653E-2,-9.345445E-1,-1.859646E0,-5.6814146E-1,9.9407697E-1,4.0665495E-1,-1.1579108E0,5.2725572E-2,-6.3165987E-1,-2.025168E-2,-9.071299E-2,1.5615704E0,-1.6663174E-1,-6.860408E-1,1.0040995E0,-5.467481E-1,1.2931504E0,2.8839734E-1,-1.5443478E0,5.0858504E-1,-1.3518401E0,-4.829749E-2,7.6655006E-1,-7.172479E-2,1.1738609E-2,-4.4920432E-4,5.0931305E-2,-7.8970335E-2,-1.4085183E-2,-5.1509954E-2,-9.457623E-2,3.3784863E-2,-6.4481944E-2,6.408693E-2,-1.9123231E-3,-2.2726106E-2,5.041022E-2,-6.950127E-2,1.0118008E-2,1.2772721E-2,-5.9228625E-2,1.82135E-2,7.911309E-2,3.3873685E-2,-4.231105E-2,2.6492536E-2,-6.759563E-2,6.410638E-2,-1.2487E-2,2.4262859E-2,-6.1819416E-2,6.822662E-2,-2.708335E-2,4.209525E-2,-2.6813198E-2,-8.634847E-2,-8.6319735E-3,-2.316753E-2,5.510707E-2,-1.2597847E-2,-7.5869374E-2,-3.0903516E-2,4.8669945E-2],"categories":[],"categories_nodes":[],"categories_segments":[],"categories_sizes":[],"default_left":[0,0,0,0,0,0,0,0,0,0,0,0,0,0,0,0,0,0,0,0,0,0,0,0,0,0,0,0,0,0,0,0,0,0,0,0,0,0,0,0,0,0,0,0,0,0,0,0,0,0,0,0,0,0,0,0,0,0,0,0,0,0,0,0,0,0,0,0,0,0,0,0,0,0,0,0,0,0,0,0,0,0,0,0,0,0,0,0,0,0,0,0,0,0,0,0,0],"id":2,"left_children":[1,3,5,7,9,11,13,15,17,19,21,23,25,27,29,31,-1,33,35,37,39,41,43,-1,-1,45,47,49,51,53,55,57,59,-1,-1,61,63,65,67,69,71,-1,73,-1,-1,75,77,79,81,83,85,87,89,91,93,-1,95,-1,-1,-1,-1,-1,-1,-1,-1,-1,-1,-1,-1,-1,-1,-1,-1,-1,-1,-1,-1,-1,-1,-1,-1,-1,-1,-1,-1,-1,-1,-1,-1,-1,-1,-1,-1,-1,-1,-1,-1],"loss_changes":[9.5070807E2,8.748175E1,1.4405331E2,2.2385376E1,2.8210876E1,1.7850159E1,4.588365E1,1.1847412E1,1.611676E1,1.8388264E1,1.013217E1,2.5730336E0,1.4510803E1,3.868803E1,3.2342148E1,9.260803E0,0E0,5.4251246E0,7.231018E0,1.3074306E1,5.693987E0,4.035575E0,1.2391319E0,0E0,0E0,7.822876E0,8.553353E0,9.581116E0,2.4147768E1,1.0071526E1,6.9308634E0,4.019678E0,8.076607E-1,0E0,0E0,5.064396E0,3.1727295E0,7.449626E0,6.654936E0,2.2496748E0,3.4975004E0,0E0,1.9476568E0,0E0,0E0,5.2163086E0,2.5600605E0,5.0238104E0,2.7605872E0,3.0768821E0,6.891945E0,1.4255453E1,2.067236E0,2.6519387E0,5.0488815E0,0E0,4.991434E0,0E0,0E0,0E0,0E0,0E0,0E0,0E0,0E0,0E0,0E0,0E0,0E0,0E0,0E0,0E0,0E0,0E0,0E0,0E0,0E0,0E0,0E0,0E0,0E0,0E0,0E0,0E0,0E0,0E0,0E0,0E0,0E0,0E0,0E0,0E0,0E0,0E0,0E0,0E0,0E0],"parents":[2147483647,0,0,1,1,2,2,3,3,4,4,5,5,6,6,7,7,8,8,9,9,10,10,11,11,12,12,13,13,14,14,15,15,17,17,18,18,19,19,20,20,21,21,22,22,25,25,26,26,27,27,28,28,29,29,30,30,31,31,32,32,35,35,36,36,37,37,38,38,39,39,40,40,42,42,45,45,46,46,47,47,48,48,49,49,50,50,51,51,52,52,53,53,54,54,56,56],"right_children":[2,4,6,8,10,12,14,16,18,20,22,24,26,28,30,32,-1,34,36,38,40,42,44,-1,-1,46,48,50,52,54,56,58,60,-1,-1,62,64,66,68,70,72,-1,74,-1,-1,76,78,80,82,84,86,88,90,92,94,-1,96,-1,-1,-1,-1,-1,-1,-1,-1,-1,-1,-1,-1,-1,-1,-1,-1,-1,-1,-1,-1,-1,-1,-1,-1,-1,-1,-1,-1,-1,-1,-1,-1,-1,-1,-1,-1,-1,-1,-1,-1],"split_conditions":[9.269973E-1,-1.220029E0,-2.1816014E-1,-4.2280936E-1,8.822577E-1,-2.029307E0,6.673792E-2,-3.1041795E-1,-5.9039557E-1,1.25776E-1,-1.5086324E0,-8.569707E-1,4.408688E0,1.1651471E-1,4.89577E-1,5.993194E-1,6.1896957E-2,-2.726709E-1,-9.663383E-1,-2.3116093E0,-3.305608E-1,9.4897604E-1,-1.8288113E-1,-6.79438E-2,1.0427734E-2,2.4342093E0,3.707834E-1,-2.0252605E-1,3.0576486E-2,5.6221993E-3,1.3180215E0,1.0293633E0,-4.145937E-1,-4.7642924E-2,4.8059653E-2,-3.6579028E-1,-3.902895E-2,3.9462355E-1,1.2957437E-1,-2.0275688E-1,-8.479134E-2,5.2725572E-2,2.00685E0,-2.025168E-2,-9.071299E-2,-1.5324676E0,8.20296E-1,-2.4436723E-1,3.234603E-1,-1.1730307E0,2.639434E0,2.8011773E-2,2.749793E-1,-7.688737E-2,-2.168457E0,-4.829749E-2,-1.4766084E-1,-7.172479E-2,1.1738609E-2,-4.4920432E-4,5.0931305E-2,-7.8970335E-2,-1.4085183E-2,-5.1509954E-2,-9.457623E-2,3.3784863E-2,-6.4481944E-2,6.408693E-2,-1.9123231E-3,-2.2726106E-2,5.041022E-2,-6.950127E-2,1.0118008E-2,1.2772721E-2,-5.9228625E-2,1.82135E-2,7.911309E-2,3.3873685E-2,-4.231105E-2,2.6492536E-2,-6.759563E-2,6.410638E-2,-1.2487E-2,2.4262859E-2,-6.1819416E-2,6.822662E-2,-2.708335E-2,4.209525E-2,-2.6813198E-2,-8.634847E-2,-8.6319735E-3,-2.316753E-2,5.510707E-2,-1.2597847E-2,-7.5869374E-2,-3.0903516E-2,4.8669945E-2],"split_indices":[121,113,108,59,108,113,310,325,313,131,316,334,43,288,75,143,0,468,96,114,313,276,35,0,0,73,212,431,93,270,87,183,187,0,0,308,85,300,288,174,308,0,28,0,0,55,317,313,179,301,108,59,399,174,129,0,478,0,0,0,0,0,0,0,0,0,0,0,0,0,0,0,0,0,0,0,0,0,0,0,0,0,0,0,0,0,0,0,0,0,0,0,0,0,0,0,0],"split_type":[0,0,0,0,0,0,0,0,0,0,0,0,0,0,0,0,0,0,0,0,0,0,0,0,0,0,0,0,0,0,0,0,0,0,0,0,0,0,0,0,0,0,0,0,0,0,0,0,0,0,0,0,0,0,0,0,0,0,0,0,0,0,0,0,0,0,0,0,0,0,0,0,0,0,0,0,0,0,0,0,0,0,0,0,0,0,0,0,0,0,0,0,0,0,0,0,0],"sum_hessian":[6.6375574E2,2.813259E2,3.824298E2,2.250591E2,5.6266804E1,2.4858102E2,1.3384879E2,1.6226566E1,2.0883253E2,3.9219635E1,1.7047169E1,2.970884E0,2.4561014E2,8.6142166E1,4.770661E1,1.3894695E1,2.3318713E0,4.0631766E0,2.0476936E2,2.757524E1,1.1644395E1,3.8236048E0,1.3223565E1,1.6097624E0,1.3611218E0,2.352893E2,1.032083E1,4.845807E1,3.7684097E1,3.1539873E1,1.616674E1,1.1436241E1,2.4584532E0,1.6129898E0,2.4501867E0,1.2086507E1,1.9268286E2,6.330096E0,2.1245144E1,2.458077E0,9.186318E0,1.4697547E0,2.3538504E0,1.3626857E0,1.1860879E1,2.328259E2,2.4634109E0,4.320343E0,6.0004873E0,2.4802206E0,4.5977848E1,2.9241602E1,8.442495E0,2.7116761E0,2.8828196E1,1.8395865E0,1.4327154E1,1.0073407E1,1.3628342E0,1.1080927E0,1.3503605E0,5.3664045E0,6.720102E0,8.364504E0,1.8431834E2,2.3471546E0,3.9829412E0,1.6426281E1,4.8188634E0,1.1114053E0,1.3466716E0,7.828586E0,1.3577318E0,1.1103486E0,1.2435017E0,4.2713223E0,2.2855458E2,1.1001043E0,1.3633065E0,1.6010598E0,2.719283E0,4.8929553E0,1.107532E0,1.1122168E0,1.3680038E0,4.4502815E1,1.4750319E0,1.748492E1,1.1756681E1,7.2220063E0,1.2204895E0,1.1113045E0,1.6003716E0,4.1013193E0,2.4726877E1,1.6037593E0,1.2723394E1],"tree_param":{"num_deleted":"0","num_feature":"512","num_nodes":"97","size_leaf_vector":"1"}},{"base_weights":[2.6734082E-2,-1.3426837E0,1.0046709E0,2.1472719E-2,-1.5552787E0,-2.7806717E-1,1.24993E0,-4.6054026E-1,1.1105844E0,-1.6074461E0,6.690839E-1,-8.879869E-1,7.054388E-1,1.3524135E0,3.046189E-2,7.357277E-1,-8.373613E-1,-1.5077072E-2,1.3752981E0,-5.882045E-2,-1.6660542E0,5.8524694E-2,-3.7334748E-2,-1.3204837E0,1.06939904E-1,-4.0084994E-1,1.041513E0,7.4733806E-1,1.4572265E0,4.4765425E-1,-9.159533E-1,6.312449E-2,-1.8917719E-1,-1.3982201E0,1.7388664E-1,9.1088135E-3,7.479297E-2,7.89538E-1,-1.1031713E0,-1.7355237E0,-9.736512E-1,2.2926264E-2,-1.4116998E0,6.4103276E-1,-1.0509919E0,7.3927546E-1,-7.250769E-2,-1.728794E-2,1.2315114E0,1.3201233E0,2.5722206E-1,1.4773337E0,-2.1070349E-1,1.3185842E0,-8.416168E-2,-1.2783021E0,2.8664341E-2,3.521692E-2,-4.925783E-2,-7.979636E-2,2.3030872E-2,5.01557E-2,-1.7788585E-2,-2.0649305E-2,6.6772245E-2,-7.3637314E-2,2.5474792E-3,-5.9427507E-3,-8.778543E-2,1.0677338E-2,-6.551664E-2,-8.0067806E-2,-2.2100022E-2,-3.6445767E-2,4.5460965E-2,-7.050898E-2,7.3990796E-4,5.2889466E-2,-1.1086524E-3,6.91155E-2,-2.084398E-2,7.07299E-2,-1.0278124E-2,-3.503565E-2,4.242937E-2,-8.907805E-3,7.454686E-2,2.6219124E-2,-5.0249267E-2,7.058167E-2,2.0530527E-2,6.05567E-2,-2.4363946E-2,-8.579316E-2,-4.9647237E-3],"categories":[],"categories_nodes":[],"categories_segments":[],"categories_sizes":[],"default_left":[0,0,0,0,0,0,0,0,0,0,0,0,0,0,0,0,0,0,0,0,0,0,0,0,0,0,0,0,0,0,0,0,0,0,0,0,0,0,0,0,0,0,0,0,0,0,0,0,0,0,0,0,0,0,0,0,0,0,0,0,0,0,0,0,0,0,0,0,0,0,0,0,0,0,0,0,0,0,0,0,0,0,0,0,0,0,0,0,0,0,0,0,0,0,0],"id":3,"left_children":[1,3,5,7,9,11,13,15,17,19,21,23,25,27,29,31,33,-1,35,37,39,-1,-1,41,43,45,47,49,51,53,55,-1,57,59,61,-1,-1,63,65,67,69,-1,71,73,75,77,-1,-1,79,81,83,85,87,89,91,93,-1,-1,-1,-1,-1,-1,-1,-1,-1,-1,-1,-1,-1,-1,-1,-1,-1,-1,-1,-1,-1,-1,-1,-1,-1,-1,-1,-1,-1,-1,-1,-1,-1,-1,-1,-1,-1,-1,-1],"loss_changes":[8.9546375E2,8.0824585E1,1.23064514E2,2.0747496E1,2.9044495E1,3.8674355E1,4.0905823E1,1.2980066E1,4.944993E0,2.1303833E1,5.2961555E0,1.7177866E1,9.6513195E0,1.8077576E1,1.084289E1,3.699197E0,1.23383045E1,0E0,1.2214394E0,9.407578E0,9.237061E0,0E0,0E0,5.137596E0,8.664739E0,8.858899E0,5.5199814E0,1.2763372E1,8.914978E0,8.916288E0,5.2723684E0,0E0,3.1454153E0,5.8170357E0,4.0890102E0,0E0,0E0,4.424204E0,2.0950394E0,6.4866333E0,9.469702E0,0E0,4.1780663E0,4.1397285E0,1.7272701E0,9.406593E-1,0E0,0E0,4.856222E0,3.3580627E0,1.5546681E1,5.9769897E0,2.8221743E0,3.4368515E-2,7.2441673E0,3.4799147E0,0E0,0E0,0E0,0E0,0E0,0E0,0E0,0E0,0E0,0E0,0E0,0E0,0E0,0E0,0E0,0E0,0E0,0E0,0E0,0E0,0E0,0E0,0E0,0E0,0E0,0E0,0E0,0E0,0E0,0E0,0E0,0E0,0E0,0E0,0E0,0E0,0E0,0E0,0E0],"parents":[2147483647,0,0,1,1,2,2,3,3,4,4,5,5,6,6,7,7,8,8,9,9,10,10,11,11,12,12,13,13,14,14,15,15,16,16,18,18,19,19,20,20,23,23,24,24,25,25,26,26,27,27,28,28,29,29,30,30,32,32,33,33,34,34,37,37,38,38,39,39,40,40,42,42,43,43,44,44,45,45,48,48,49,49,50,50,51,51,52,52,53,53,54,54,55,55],"right_children":[2,4,6,8,10,12,14,16,18,20,22,24,26,28,30,32,34,-1,36,38,40,-1,-1,42,44,46,48,50,52,54,56,-1,58,60,62,-1,-1,64,66,68,70,-1,72,74,76,78,-1,-1,80,82,84,86,88,90,92,94,-1,-1,-1,-1,-1,-1,-1,-1,-1,-1,-1,-1,-1,-1,-1,-1,-1,-1,-1,-1,-1,-1,-1,-1,-1,-1,-1,-1,-1,-1,-1,-1,-1,-1,-1,-1,-1,-1,-1],"split_conditions":[9.269973E-1,-4.1252536E-1,-1.0018023E0,-1.3515095E-1,1.4914758E0,-7.6034707E-3,1.6579129E0,-1.1880832E0,-4.4325626E-1,-5.658102E-1,8.723114E-1,4.89577E-1,-8.842104E-1,-1.1073622E-1,1.1651471E-1,4.6963736E-2,-1.4714011E0,-1.5077072E-2,1.5630165E-1,1.662256E-1,9.547682E-1,5.8524694E-2,-3.7334748E-2,5.6221993E-3,-4.333252E-1,-3.1822032E-1,-1.7178659E-3,1.4960694E-1,1.9276537E0,2.4422643E-1,-1.3639734E0,6.312449E-2,2.367868E-1,-7.0866996E-1,-1.0354418E0,9.1088135E-3,7.479297E-2,-1.2760358E0,-1.4934402E0,-2.4780035E0,-3.799536E-1,2.2926264E-2,-1.6609687E-1,2.1759586E-2,3.0361056E-1,6.5557605E-1,-7.250769E-2,-1.728794E-2,2.1838358E-2,1.4434241E0,9.8571874E-2,-1.9428738E0,1.4131287E-1,5.228951E-1,-8.264357E-2,1.0623073E-1,2.8664341E-2,3.521692E-2,-4.925783E-2,-7.979636E-2,2.3030872E-2,5.01557E-2,-1.7788585E-2,-2.0649305E-2,6.6772245E-2,-7.3637314E-2,2.5474792E-3,-5.9427507E-3,-8.778543E-2,1.0677338E-2,-6.551664E-2,-8.0067806E-2,-2.2100022E-2,-3.6445767E-2,4.5460965E-2,-7.050898E-2,7.3990796E-4,5.2889466E-2,-1.1086524E-3,6.91155E-2,-2.084398E-2,7.07299E-2,-1.0278124E-2,-3.503565E-2,4.242937E-2,-8.907805E-3,7.454686E-2,2.6219124E-2,-5.0249267E-2,7.058167E-2,2.0530527E-2,6.05567E-2,-2.4363946E-2,-8.579316E-2,-4.9647237E-3],"split_indices":[121,59,61,245,114,342,110,368,357,313,317,75,72,79,288,337,4,0,292,264,75,0,0,270,312,154,383,39,74,307,65,0,307,335,319,0,0,63,114,115,290,0,450,302,270,365,0,0,380,38,383,91,185,289,330,336,0,0,0,0,0,0,0,0,0,0,0,0,0,0,0,0,0,0,0,0,0,0,0,0,0,0,0,0,0,0,0,0,0,0,0,0,0,0,0],"split_type":[0,0,0,0,0,0,0,0,0,0,0,0,0,0,0,0,0,0,0,0,0,0,0,0,0,0,0,0,0,0,0,0,0,0,0,0,0,0,0,0,0,0,0,0,0,0,0,0,0,0,0,0,0,0,0,0,0,0,0,0,0,0,0,0,0,0,0,0,0,0,0,0,0,0,0,0,0,0,0,0,0,0,0,0,0,0,0,0,0,0,0,0,0,0,0],"sum_hessian":[6.6664655E2,2.7757776E2,3.890688E2,3.754731E1,2.4003044E2,6.242806E1,3.2664072E2,2.6428066E1,1.1119245E1,2.3480106E2,5.229389E0,3.8592255E1,2.3835806E1,3.0121753E2,2.5423195E1,6.10248E0,2.0325584E1,1.733373E0,9.385871E0,8.635143E0,2.2616591E2,3.9896665E0,1.239723E0,2.6671066E1,1.1921187E1,5.5088935E0,1.8326912E1,4.567431E1,2.5554321E2,1.8010798E1,7.412398E0,3.6555417E0,2.4469385E0,1.2828159E1,7.4974265E0,1.0918239E0,8.294047E0,4.89929E0,3.735853E0,2.0417441E2,2.1991505E1,1.1044232E0,2.5566645E1,8.463718E0,3.4574685E0,2.7817898E0,2.727104E0,2.1089108E0,1.6218E1,2.0280062E1,2.5394247E1,2.5261221E2,2.9310043E0,6.2674646E0,1.1743332E1,6.075743E0,1.3366548E0,1.2070789E0,1.2398596E0,1.1722757E1,1.1054019E0,2.5738873E0,4.9235387E0,1.6057119E0,3.2935784E0,2.6206024E0,1.1152507E0,2.6027303E0,2.0157169E2,4.9395437E0,1.705196E1,2.083942E1,4.7272234E0,1.104382E0,7.3593364E0,2.3442793E0,1.1131891E0,1.6869557E0,1.094834E0,1.5006582E1,1.2114185E0,1.916606E1,1.114002E0,9.622363E0,1.5771884E1,1.9602541E0,2.5065196E2,1.6987038E0,1.2323004E0,5.181734E0,1.0857303E0,2.3115244E0,9.4318075E0,4.099109E0,1.976634E0],"tree_param":{"num_deleted":"0","num_feature":"512","num_nodes":"95","size_leaf_vector":"1"}},{"base_weights":[2.7785176E-2,-1.3221976E0,9.7373474E-1,-7.528679E-2,-1.5247494E0,-2.7544014E-2,1.2710749E0,-6.463851E-1,1.082488E0,-1.5767399E0,5.5339575E-1,4.5325524E-1,-1.0139363E0,1.420784E0,7.532693E-1,5.9066933E-1,-1.0451592E0,1.3269838E0,1.2811394E-1,-5.103901E-1,-1.6839787E0,6.422286E-2,-3.23636E-2,-1.2463545E-1,1.0604656E0,-1.4915897E0,-2.6878032E-1,1.4585402E0,3.6722538E-1,1.0662769E0,1.9869672E-2,1.0628018E0,-1.8847134E-2,-1.531153E0,-3.1896362E-1,7.209542E-2,8.756779E-3,-3.199486E-2,4.0693674E-2,-1.2688624E0,3.6446995E-1,-1.6987532E0,2.108693E-2,-6.3781685E-1,1.1924762E0,1.2895882E0,-1.945137E-1,-1.6495092E0,1.2319066E-2,-6.953207E-1,5.2939635E-2,-1.2262291E-2,1.4738756E0,1.0311407E0,-9.4896907E-1,1.1989496E0,-4.6086833E-2,-5.19781E-1,8.3815163E-1,9.290923E-3,6.274913E-2,-8.66662E-2,-1.0391517E-2,-3.1827506E-2,5.025354E-2,2.773985E-2,-7.513372E-2,-6.2931344E-2,4.1366637E-2,1.911887E-2,-8.560134E-2,7.9885405E-4,-5.229022E-2,7.236151E-2,-1.3073027E-2,6.876022E-2,-1.6684039E-2,4.31156E-2,-6.0667407E-2,-8.949432E-2,-2.0301852E-2,7.024977E-3,-5.934904E-2,7.482672E-2,8.3743995E-3,6.6497706E-2,-1.2949972E-2,8.759693E-3,-7.4702494E-2,-9.83188E-3,6.5425485E-2,-5.2948933E-2,3.1955615E-2,4.2963307E-2,-4.5693874E-2,5.333234E-2,-1.3782702E-2],"categories":[],"categories_nodes":[],"categories_segments":[],"categories_sizes":[],"default_left":[0,0,0,0,0,0,0,0,0,0,0,0,0,0,0,0,0,0,0,0,0,0,0,0,0,0,0,0,0,0,0,0,0,0,0,0,0,0,0,0,0,0,0,0,0,0,0,0,0,0,0,0,0,0,0,0,0,0,0,0,0,0,0,0,0,0,0,0,0,0,0,0,0,0,0,0,0,0,0,0,0,0,0,0,0,0,0,0,0,0,0,0,0,0,0,0,0],"id":4,"left_children":[1,3,5,7,9,11,13,15,17,19,21,23,25,27,29,31,33,35,37,39,41,-1,-1,43,45,47,49,51,53,55,57,59,-1,61,63,-1,-1,-1,-1,65,67,69,-1,71,73,75,77,79,-1,81,-1,-1,83,85,87,89,91,93,95,-1,-1,-1,-1,-1,-1,-1,-1,-1,-1,-1,-1,-1,-1,-1,-1,-1,-1,-1,-1,-1,-1,-1,-1,-1,-1,-1,-1,-1,-1,-1,-1,-1,-1,-1,-1,-1,-1],"loss_changes":[8.432571E2,6.860126E1,1.1562561E2,2.6534405E1,2.6154968E1,4.308365E1,2.2137512E1,1.3833812E1,2.9288998E0,2.5276123E1,6.494275E0,2.1577278E1,1.0191874E1,8.657349E0,1.588092E1,3.67619E0,6.789528E0,1.132824E0,2.5301988E0,1.527244E1,7.1636353E0,0E0,0E0,2.2530527E1,8.850243E0,5.3236427E0,8.009916E0,6.182129E0,9.1332245E0,7.2176323E0,1.00357895E1,6.230831E-1,0E0,2.874506E0,4.6474314E0,0E0,0E0,0E0,0E0,6.0262527E0,9.411354E0,6.3447266E0,0E0,6.3728456E0,3.8523483E0,3.9917526E0,6.9532504E0,2.162777E0,0E0,4.409811E0,0E0,0E0,6.2890625E0,2.9205632E0,2.498138E0,6.892811E0,4.9344363E0,8.240517E0,2.5902257E0,0E0,0E0,0E0,0E0,0E0,0E0,0E0,0E0,0E0,0E0,0E0,0E0,0E0,0E0,0E0,0E0,0E0,0E0,0E0,0E0,0E0,0E0,0E0,0E0,0E0,0E0,0E0,0E0,0E0,0E0,0E0,0E0,0E0,0E0,0E0,0E0,0E0,0E0],"parents":[2147483647,0,0,1,1,2,2,3,3,4,4,5,5,6,6,7,7,8,8,9,9,10,10,11,11,12,12,13,13,14,14,15,15,16,16,17,17,18,18,19,19,20,20,23,23,24,24,25,25,26,26,27,27,28,28,29,29,30,30,31,31,33,33,34,34,39,39,40,40,41,41,43,43,44,44,45,45,46,46,47,47,49,49,52,52,53,53,54,54,55,55,56,56,57,57,58,58],"right_children":[2,4,6,8,10,12,14,16,18,20,22,24,26,28,30,32,34,36,38,40,42,-1,-1,44,46,48,50,52,54,56,58,60,-1,62,64,-1,-1,-1,-1,66,68,70,-1,72,74,76,78,80,-1,82,-1,-1,84,86,88,90,92,94,96,-1,-1,-1,-1,-1,-1,-1,-1,-1,-1,-1,-1,-1,-1,-1,-1,-1,-1,-1,-1,-1,-1,-1,-1,-1,-1,-1,-1,-1,-1,-1,-1,-1,-1,-1,-1,-1,-1],"split_conditions":[8.422458E-1,-3.816036E-1,4.612029E-1,-5.5188435E-1,1.2928746E0,-3.6219215E-1,6.315828E-2,-1.1743805E0,-1.0850439E0,-1.0065909E-1,-2.458767E-1,-6.677038E-1,-1.0260261E0,1.0960504E0,1.1601048E-1,4.9692583E-1,-1.9855381E0,9.6622205E-1,-8.439122E-1,-1.776085E0,1.9383467E0,6.422286E-2,-3.23636E-2,1.5894821E-1,5.1017916E-1,2.1067579E0,-1.19704E0,-1.9428738E0,-2.863342E-1,9.160155E-1,-9.361072E-2,-4.0187407E-1,-1.8847134E-2,1.0578802E0,1.0099009E0,7.209542E-2,8.756779E-3,-3.199486E-2,4.0693674E-2,-5.411368E-1,-5.307817E-1,-1.1975566E0,2.108693E-2,-1.4930689E0,1.87902E-1,9.029774E-2,-7.1794504E-1,5.795371E-2,1.2319066E-2,1.0566377E-1,5.2939635E-2,-1.2262291E-2,2.2125967E0,-2.2116192E-1,-5.8999926E-1,-7.450354E-1,-4.2514998E-1,3.5828003E-1,2.0282148E-1,9.290923E-3,6.274913E-2,-8.66662E-2,-1.0391517E-2,-3.1827506E-2,5.025354E-2,2.773985E-2,-7.513372E-2,-6.2931344E-2,4.1366637E-2,1.911887E-2,-8.560134E-2,7.9885405E-4,-5.229022E-2,7.236151E-2,-1.3073027E-2,6.876022E-2,-1.6684039E-2,4.31156E-2,-6.0667407E-2,-8.949432E-2,-2.0301852E-2,7.024977E-3,-5.934904E-2,7.482672E-2,8.3743995E-3,6.6497706E-2,-1.2949972E-2,8.759693E-3,-7.4702494E-2,-9.83188E-3,6.5425485E-2,-5.2948933E-2,3.1955615E-2,4.2963307E-2,-4.5693874E-2,5.333234E-2,-1.3782702E-2],"split_indices":[121,59,75,4,114,49,99,368,346,330,311,103,349,249,288,213,4,94,347,75,102,0,0,265,176,95,178,91,369,384,247,160,0,63,314,0,0,0,0,425,193,137,0,167,264,355,303,311,0,332,0,0,69,194,238,274,369,284,469,0,0,0,0,0,0,0,0,0,0,0,0,0,0,0,0,0,0,0,0,0,0,0,0,0,0,0,0,0,0,0,0,0,0,0,0,0,0],"split_type":[0,0,0,0,0,0,0,0,0,0,0,0,0,0,0,0,0,0,0,0,0,0,0,0,0,0,0,0,0,0,0,0,0,0,0,0,0,0,0,0,0,0,0,0,0,0,0,0,0,0,0,0,0,0,0,0,0,0,0,0,0,0,0,0,0,0,0,0,0,0,0,0,0,0,0,0,0,0,0,0,0,0,0,0,0,0,0,0,0,0,0,0,0,0,0,0,0],"sum_hessian":[6.5832605E2,2.7107376E2,3.872523E2,3.807226E1,2.3300148E2,8.887555E1,2.9837677E2,2.5791655E1,1.228061E1,2.2754999E2,5.4515023E0,6.011437E1,2.8761179E1,2.3010457E2,6.8272194E1,6.170054E0,1.96216E1,9.465317E0,2.8152924E0,2.1319073E1,2.0623091E2,3.3450103E0,2.106492E0,3.1208008E1,2.8906363E1,1.6916073E1,1.1845106E1,2.2177255E2,8.332016E0,4.753209E1,2.0740103E1,4.080605E0,2.0894492E0,1.109081E1,8.530789E0,8.377626E0,1.087691E0,1.3595514E0,1.455741E0,1.1177887E1,1.0141187E1,2.049859E2,1.2450013E0,2.2828981E1,8.379026E0,2.4420341E1,4.486021E0,1.5553697E1,1.3623763E0,9.325221E0,2.5198846E0,1.844588E0,2.1992796E2,5.682315E0,2.6497009E0,4.2397465E1,5.134625E0,1.2717681E1,8.022423E0,1.0870296E0,2.9935753E0,9.352199E0,1.7386113E0,7.299215E0,1.231575E0,1.1142508E0,1.0063636E1,1.868787E0,8.2724E0,1.1228834E0,2.0386302E2,9.141192E0,1.3687788E1,7.133697E0,1.2453296E0,2.3342028E1,1.0783129E0,2.2773645E0,2.2086563E0,1.3581084E1,1.9726121E0,3.7183223E0,5.6068993E0,2.1603537E2,3.892594E0,4.5886607E0,1.093654E0,1.0868323E0,1.5628687E0,3.028271E0,3.9369194E1,1.8517624E0,3.2828627E0,2.5642729E0,1.0153408E1,6.691926E0,1.3304963E0],"tree_param":{"num_deleted":"0","num_feature":"512","num_nodes":"97","size_leaf_vector":"1"}},{"base_weights":[1.3629363E-2,-1.1264502E0,9.979803E-1,6.7578113E-1,-1.3394425E0,-1.4474976E-1,1.2192632E0,8.8244337E-1,-6.598949E-1,-1.45515E0,7.609495E-2,-6.568327E-1,6.252194E-1,3.1715676E-1,1.3149923E0,1.0105293E0,-6.1894532E-2,-7.055484E-2,3.353436E-2,-1.5720481E0,-7.149307E-1,-7.625933E-1,8.389285E-1,-1.1290487E0,8.219266E-2,-8.0845433E-1,8.712333E-1,5.9691286E-1,-1.2370394E0,1.3734503E0,1.4074746E-1,1.2341595E0,2.1011047E-2,-8.910293E-1,-1.63372E0,1.7125987E-1,-1.2416197E0,2.5533577E-2,-1.0805532E0,-2.1889584E-2,1.1400588E0,1.8475062E-1,-1.3280839E0,3.478049E-1,-6.40087E-2,-6.83788E-2,1.6437229E-2,1.1004337E0,-3.913291E-2,1.7478275E-1,1.1985782E0,-1.0204604E-2,-7.432611E-2,-3.1067586E-2,1.3925679E0,1.061579E0,-5.830594E-1,-1.0216988E-2,6.709867E-2,-3.1204019E-2,5.386526E-2,1.294463E-2,-7.008001E-2,-8.2904994E-2,-2.8330008E-2,-2.3043377E-2,5.1705886E-2,-7.661973E-2,-1.0788101E-2,-6.9611624E-2,6.733698E-3,6.6795215E-2,1.1660038E-4,-4.178631E-2,4.7239345E-2,2.136883E-3,-7.4036926E-2,-2.8515035E-2,4.026853E-2,6.183496E-2,-2.5958857E-3,6.211973E-2,-1.0656094E-2,1.0094221E-2,6.966981E-2,7.013625E-2,6.2061106E-3,-3.7249855E-3,6.529841E-2,-4.9274113E-2,2.4397757E-2],"categories":[],"categories_nodes":[],"categories_segments":[],"categories_sizes":[],"default_left":[0,0,0,0,0,0,0,0,0,0,0,0,0,0,0,0,0,0,0,0,0,0,0,0,0,0,0,0,0,0,0,0,0,0,0,0,0,0,0,0,0,0,0,0,0,0,0,0,0,0,0,0,0,0,0,0,0,0,0,0,0,0,0,0,0,0,0,0,0,0,0,0,0,0,0,0,0,0,0,0,0,0,0,0,0,0,0,0,0,0,0],"id":5,"left_children":[1,3,5,7,9,11,13,15,17,19,21,23,25,27,29,31,-1,-1,-1,33,35,37,39,41,43,45,47,49,51,53,55,57,59,61,63,65,67,-1,69,-1,71,73,75,77,-1,-1,-1,79,-1,81,83,-1,-1,-1,85,87,89,-1,-1,-1,-1,-1,-1,-1,-1,-1,-1,-1,-1,-1,-1,-1,-1,-1,-1,-1,-1,-1,-1,-1,-1,-1,-1,-1,-1,-1,-1,-1,-1,-1,-1],"loss_changes":[7.362664E2,1.1759674E2,8.920413E1,9.634657E0,4.469394E1,2.3283525E1,2.5063934E1,9.080158E0,5.9104443E0,2.0654114E1,1.4407123E1,1.2421333E1,9.057486E0,1.3619342E1,1.8096039E1,6.1117268E0,0E0,0E0,0E0,7.6381226E0,1.7090042E1,4.9134994E0,5.014673E0,5.8994713E0,5.76639E0,2.9849129E0,8.706449E0,6.3383064E0,9.450774E-1,1.0539886E1,9.782973E0,3.780201E0,4.849474E0,1.2210489E1,4.194641E0,8.308112E0,6.4708786E0,0E0,3.5743036E0,0E0,2.1763039E0,3.6768486E0,4.0183067E0,5.95921E0,0E0,0E0,0E0,2.9836922E0,0E0,7.0240417E0,1.7495861E0,0E0,0E0,0E0,3.0672913E0,1.8757868E0,4.0770273E0,0E0,0E0,0E0,0E0,0E0,0E0,0E0,0E0,0E0,0E0,0E0,0E0,0E0,0E0,0E0,0E0,0E0,0E0,0E0,0E0,0E0,0E0,0E0,0E0,0E0,0E0,0E0,0E0,0E0,0E0,0E0,0E0,0E0,0E0],"parents":[2147483647,0,0,1,1,2,2,3,3,4,4,5,5,6,6,7,7,8,8,9,9,10,10,11,11,12,12,13,13,14,14,15,15,19,19,20,20,21,21,22,22,23,23,24,24,25,25,26,26,27,27,28,28,29,29,30,30,31,31,32,32,33,33,34,34,35,35,36,36,38,38,40,40,41,41,42,42,43,43,47,47,49,49,50,50,54,54,55,55,56,56],"right_children":[2,4,6,8,10,12,14,16,18,20,22,24,26,28,30,32,-1,-1,-1,34,36,38,40,42,44,46,48,50,52,54,56,58,60,62,64,66,68,-1,70,-1,72,74,76,78,-1,-1,-1,80,-1,82,84,-1,-1,-1,86,88,90,-1,-1,-1,-1,-1,-1,-1,-1,-1,-1,-1,-1,-1,-1,-1,-1,-1,-1,-1,-1,-1,-1,-1,-1,-1,-1,-1,-1,-1,-1,-1,-1,-1,-1],"split_conditions":[1.2194339E0,-1.3645505E0,-1.0018023E0,6.837992E-1,4.6883747E-1,-7.6034707E-3,-1.8616045E0,-9.080709E-1,9.055346E-1,9.038864E-1,3.453546E-1,9.2083615E-1,-1.7178659E-3,-1.0475526E0,2.530226E0,-1.0729876E0,-6.1894532E-2,-7.055484E-2,3.353436E-2,-1.0065909E-1,-1.1619081E0,-6.3471645E-1,2.2378033E-1,4.6993858E-1,5.9642166E-1,-1.21855184E-1,1.0124958E0,-7.115337E-1,4.8102075E-1,-2.3688545E0,3.0338865E-2,-7.6608115E-1,3.501513E-1,8.591975E-2,1.7898647E0,-3.7335208E-1,-2.7533385E-1,2.5533577E-2,2.0688081E-1,-2.1889584E-2,2.410423E0,6.45933E-1,-3.3362937E-1,-1.6433653E-1,-6.40087E-2,-6.83788E-2,1.6437229E-2,-1.764506E-1,-3.913291E-2,-1.3477522E-1,-3.2293256E-2,-1.0204604E-2,-7.432611E-2,-3.1067586E-2,3.2843703E-1,6.6051885E-2,8.407089E-1,-1.0216988E-2,6.709867E-2,-3.1204019E-2,5.386526E-2,1.294463E-2,-7.008001E-2,-8.2904994E-2,-2.8330008E-2,-2.3043377E-2,5.1705886E-2,-7.661973E-2,-1.0788101E-2,-6.9611624E-2,6.733698E-3,6.6795215E-2,1.1660038E-4,-4.178631E-2,4.7239345E-2,2.136883E-3,-7.4036926E-2,-2.8515035E-2,4.026853E-2,6.183496E-2,-2.5958857E-3,6.211973E-2,-1.0656094E-2,1.0094221E-2,6.966981E-2,7.013625E-2,6.2061106E-3,-3.7249855E-3,6.529841E-2,-4.9274113E-2,2.4397757E-2],"split_indices":[121,108,61,78,114,342,0,319,365,75,55,150,383,346,189,346,0,0,0,330,368,285,351,314,392,184,109,280,180,23,227,274,83,3,72,369,285,0,244,0,86,444,39,411,0,0,0,453,0,405,474,0,0,0,265,381,83,0,0,0,0,0,0,0,0,0,0,0,0,0,0,0,0,0,0,0,0,0,0,0,0,0,0,0,0,0,0,0,0,0,0],"split_type":[0,0,0,0,0,0,0,0,0,0,0,0,0,0,0,0,0,0,0,0,0,0,0,0,0,0,0,0,0,0,0,0,0,0,0,0,0,0,0,0,0,0,0,0,0,0,0,0,0,0,0,0,0,0,0,0,0,0,0,0,0,0,0,0,0,0,0,0,0,0,0,0,0,0,0,0,0,0,0,0,0,0,0,0,0,0,0,0,0,0,0],"sum_hessian":[6.540678E2,3.029942E2,3.5107358E2,3.1794302E1,2.7119992E2,5.7010532E1,2.9406305E2,2.7827955E1,3.9663467E0,2.50681E2,2.0518915E1,3.4327377E1,2.2683153E1,2.8625252E1,2.654378E2,2.6736273E1,1.0916841E0,2.4964337E0,1.4699131E0,2.1552133E2,3.515966E1,9.773677E0,1.0745238E1,2.0622463E1,1.3704915E1,2.9874184E0,1.9695734E1,2.4780657E1,3.8445954E0,2.5268845E2,1.2749365E1,2.1606083E1,5.1301885E0,1.9179342E1,1.96342E2,1.3358276E1,2.1801386E1,1.8318752E0,7.941802E0,1.9640993E0,8.781138E0,2.722625E0,1.7899837E1,1.2092098E1,1.6128168E0,1.8669301E0,1.1204882E0,1.7592379E1,2.1033556E0,1.53215275E1,9.459128E0,1.1016076E0,2.7429879E0,2.0996664E0,2.5058878E2,5.405629E0,7.3437357E0,1.4440215E0,2.0162062E1,3.4390805E0,1.691108E0,6.048862E0,1.3130481E1,1.9141502E2,4.926962E0,7.9788637E0,5.3794127E0,1.6601885E1,5.1995006E0,6.20476E0,1.737042E0,7.3429537E0,1.438185E0,1.1196795E0,1.6029457E0,1.8657403E0,1.6034098E1,3.9400356E0,8.152062E0,1.5666605E1,1.9257734E0,3.4962173E0,1.1825311E1,1.8795546E0,7.5795736E0,2.484931E2,2.095672E0,1.0800445E0,4.325585E0,5.3960757E0,1.94766E0],"tree_param":{"num_deleted":"0","num_feature":"512","num_nodes":"91","size_leaf_vector":"1"}},{"base_weights":[1.7016394E-2,-1.1746218E0,8.8904995E-1,-1.3582301E0,9.2516184E-2,2.6744062E-1,1.3373373E0,-1.506373E0,-6.238764E-1,-6.8592256E-1,6.8322814E-1,-3.4688833E-1,7.44378E-1,1.3752472E0,-9.11253E-1,-1.5343627E0,5.369336E-1,2.4604055E-1,-1.1102265E0,-1.1037136E0,7.464303E-1,9.7909147E-1,-2.717826E-1,-7.0782846E-1,7.1137035E-1,1.0041877E0,1.5805376E-1,1.0159401E0,1.4449035E0,-6.546511E-2,1.9925365E-3,-7.4966013E-1,-1.6008542E0,-1.1762346E-2,5.0171692E-2,-7.837504E-1,6.5666485E-1,2.8448362E-2,-1.2671005E0,-2.5617784E-1,-1.4611803E0,5.596876E-2,-3.8394525E-3,1.1876513E0,-2.3474323E-2,3.8553858E-1,-6.280221E-2,-9.68573E-1,2.2413094E-1,1.0228709E0,-5.2599686E-1,-3.2118967E-1,1.0684474E0,8.1867343E-1,-5.964458E-1,1.1293417E0,-4.3397406E-1,-3.0581725E-3,1.4547002E0,4.672743E-3,-6.3451275E-2,2.9203554E-3,-8.110952E-2,2.4919657E-2,-6.665256E-2,-1.4812008E-2,5.022219E-2,-6.8139985E-2,3.7850204E-3,2.5524482E-2,-4.40719E-2,-7.992878E-2,-1.3642435E-2,3.3438008E-3,6.554233E-2,4.1367304E-2,-2.1880908E-2,3.70458E-2,-5.4247E-2,-4.736428E-2,3.4176666E-2,6.2301017E-2,-1.7610129E-2,2.5414145E-2,-6.513017E-2,3.9250206E-2,-5.3579867E-2,-2.6359353E-2,5.628633E-2,5.3768523E-2,-1.886209E-2,2.5619617E-2,-5.348137E-2,6.098569E-2,-7.997198E-3,4.0420346E-2,-6.486024E-2,7.3010534E-2,1.2586405E-2],"categories":[],"categories_nodes":[],"categories_segments":[],"categories_sizes":[],"default_left":[0,0,0,0,0,0,0,0,0,0,0,0,0,0,0,0,0,0,0,0,0,0,0,0,0,0,0,0,0,0,0,0,0,0,0,0,0,0,0,0,0,0,0,0,0,0,0,0,0,0,0,0,0,0,0,0,0,0,0,0,0,0,0,0,0,0,0,0,0,0,0,0,0,0,0,0,0,0,0,0,0,0,0,0,0,0,0,0,0,0,0,0,0,0,0,0,0,0,0],"id":6,"left_children":[1,3,5,7,9,11,13,15,17,19,21,23,25,27,29,31,33,35,37,39,41,43,45,47,49,51,53,55,57,-1,-1,59,61,-1,-1,63,65,-1,67,69,71,-1,-1,73,-1,75,-1,77,79,81,83,85,87,89,91,93,95,-1,97,-1,-1,-1,-1,-1,-1,-1,-1,-1,-1,-1,-1,-1,-1,-1,-1,-1,-1,-1,-1,-1,-1,-1,-1,-1,-1,-1,-1,-1,-1,-1,-1,-1,-1,-1,-1,-1,-1,-1,-1],"loss_changes":[6.6645593E2,6.3179657E1,1.0283737E2,2.4819397E1,1.6671532E1,4.608782E1,1.9572906E1,1.2051941E1,1.7812023E1,1.0220049E1,6.068286E0,2.6876148E1,1.3303368E1,3.831604E0,1.6288512E0,8.918488E0,1.4585556E0,7.1467767E0,7.77293E0,3.4307375E0,1.3576796E0,5.35975E0,4.1330333E0,1.28497505E1,7.4985046E0,5.5427628E0,1.4605102E1,6.697399E0,2.670929E0,0E0,0E0,7.5756865E0,6.3929443E0,0E0,0E0,4.134379E0,4.1938477E0,0E0,3.2892265E0,2.81725E0,9.713898E-1,0E0,0E0,1.8699455E0,0E0,1.8700933E0,0E0,8.921818E0,7.200558E0,4.9698334E0,4.109734E0,3.8228953E0,5.936409E0,5.17074E0,7.7887473E0,4.307045E0,4.760355E0,0E0,7.8518677E-1,0E0,0E0,0E0,0E0,0E0,0E0,0E0,0E0,0E0,0E0,0E0,0E0,0E0,0E0,0E0,0E0,0E0,0E0,0E0,0E0,0E0,0E0,0E0,0E0,0E0,0E0,0E0,0E0,0E0,0E0,0E0,0E0,0E0,0E0,0E0,0E0,0E0,0E0,0E0,0E0],"parents":[2147483647,0,0,1,1,2,2,3,3,4,4,5,5,6,6,7,7,8,8,9,9,10,10,11,11,12,12,13,13,14,14,15,15,16,16,17,17,18,18,19,19,20,20,21,21,22,22,23,23,24,24,25,25,26,26,27,27,28,28,31,31,32,32,35,35,36,36,38,38,39,39,40,40,43,43,45,45,47,47,48,48,49,49,50,50,51,51,52,52,53,53,54,54,55,55,56,56,58,58],"right_children":[2,4,6,8,10,12,14,16,18,20,22,24,26,28,30,32,34,36,38,40,42,44,46,48,50,52,54,56,58,-1,-1,60,62,-1,-1,64,66,-1,68,70,72,-1,-1,74,-1,76,-1,78,80,82,84,86,88,90,92,94,96,-1,98,-1,-1,-1,-1,-1,-1,-1,-1,-1,-1,-1,-1,-1,-1,-1,-1,-1,-1,-1,-1,-1,-1,-1,-1,-1,-1,-1,-1,-1,-1,-1,-1,-1,-1,-1,-1,-1,-1,-1,-1],"split_conditions":[9.269973E-1,-1.0681964E0,-8.3878815E-1,8.909849E-1,3.5026821E-1,4.89577E-1,1.3569349E0,1.9383467E0,-1.1704197E0,1.044348E0,1.1883879E-1,1.3954249E-1,1.2550281E-1,-1.0782889E0,-7.2159064E-1,-1.04869545E-1,-1.136333E0,-6.1620903E-1,-1.2824817E-1,-1.3070008E0,1.2246897E-1,-8.7423074E-1,9.2826587E-1,-5.75437E-1,1.6309416E-1,-2.89118E-1,-6.0327994E-3,-9.394058E-1,-1.398645E0,-6.546511E-2,1.9925365E-3,4.012668E-1,-2.4780035E0,-1.1762346E-2,5.0171692E-2,-1.0367213E0,7.08916E-2,2.8448362E-2,6.1527133E-1,1.4143631E-1,5.401902E-1,5.596876E-2,-3.8394525E-3,-1.1402526E0,-2.3474323E-2,-1.2155403E0,-6.280221E-2,5.6221993E-3,-1.9808319E0,7.653189E-1,-4.3877155E-1,2.6625416E-1,1.0544385E0,2.2936255E-1,6.3683426E-1,-6.663142E-1,-8.345267E-1,-3.0581725E-3,3.2647307E0,4.672743E-3,-6.3451275E-2,2.9203554E-3,-8.110952E-2,2.4919657E-2,-6.665256E-2,-1.4812008E-2,5.022219E-2,-6.8139985E-2,3.7850204E-3,2.5524482E-2,-4.40719E-2,-7.992878E-2,-1.3642435E-2,3.3438008E-3,6.554233E-2,4.1367304E-2,-2.1880908E-2,3.70458E-2,-5.4247E-2,-4.736428E-2,3.4176666E-2,6.2301017E-2,-1.7610129E-2,2.5414145E-2,-6.513017E-2,3.9250206E-2,-5.3579867E-2,-2.6359353E-2,5.628633E-2,5.3768523E-2,-1.886209E-2,2.5619617E-2,-5.348137E-2,6.098569E-2,-7.997198E-3,4.0420346E-2,-6.486024E-2,7.3010534E-2,1.2586405E-2],"split_indices":[121,4,7,75,17,75,180,102,368,81,288,265,288,126,280,330,349,433,330,151,330,368,276,286,306,411,99,319,245,0,0,115,115,0,0,89,297,0,271,383,132,0,0,319,0,315,0,270,34,213,22,131,121,332,145,320,19,0,84,0,0,0,0,0,0,0,0,0,0,0,0,0,0,0,0,0,0,0,0,0,0,0,0,0,0,0,0,0,0,0,0,0,0,0,0,0,0,0,0],"split_type":[0,0,0,0,0,0,0,0,0,0,0,0,0,0,0,0,0,0,0,0,0,0,0,0,0,0,0,0,0,0,0,0,0,0,0,0,0,0,0,0,0,0,0,0,0,0,0,0,0,0,0,0,0,0,0,0,0,0,0,0,0,0,0,0,0,0,0,0,0,0,0,0,0,0,0,0,0,0,0,0,0,0,0,0,0,0,0,0,0,0,0,0,0,0,0,0,0,0,0],"sum_hessian":[6.393432E2,2.7001685E2,3.6932635E2,2.3578038E2,3.4236465E1,1.5541693E2,2.1390942E2,1.9532559E2,4.045478E1,1.4701579E1,1.9534885E1,6.804406E1,8.737287E1,2.1074478E2,3.1646397E0,1.9293185E2,2.3937395E0,1.4684053E1,2.5770727E1,1.1559365E1,3.142214E0,1.489514E1,4.639745E0,5.098556E1,1.70585E1,6.005074E1,2.7322136E1,3.675205E1,1.7399274E2,1.9654572E0,1.1991826E0,1.6029804E1,1.7690205E2,1.0882006E0,1.3055389E0,3.9269948E0,1.0757059E1,1.9774112E0,2.3793316E1,3.93836E0,7.621005E0,1.9149339E0,1.2272801E0,1.3177961E1,1.7171786E0,3.1466253E0,1.49312E0,3.980859E1,1.1176973E1,1.3766266E1,3.2922335E0,2.5919771E0,5.7458763E1,1.4522002E1,1.2800133E1,3.4291145E1,2.4609036E0,1.090608E0,1.7290213E2,6.4230175E0,9.606787E0,2.223823E0,1.7467822E2,1.2056108E0,2.721384E0,2.9158635E0,7.8411956E0,2.2196514E1,1.5968027E0,1.8515832E0,2.0867767E0,6.5217338E0,1.0992712E0,1.4578604E0,1.1720101E1,2.044308E0,1.1023173E0,2.195055E0,3.7613533E1,2.8493934E0,8.3275795E0,1.1924919E1,1.8413466E0,1.560061E0,1.7321725E0,1.029E0,1.5629771E0,1.706858E0,5.5751904E1,1.2038745E1,2.483257E0,3.80373E0,8.996403E0,3.209539E1,2.195754E0,1.0349257E0,1.4259781E0,1.7190086E2,1.0012541E0],"tree_param":{"num_deleted":"0","num_feature":"512","num_nodes":"99","size_leaf_vector":"1"}},{"base_weights":[-2.8022444E-3,-9.6290934E-1,9.4471383E-1,-1.2469171E0,2.3693469E-1,-4.4938415E-1,1.1298026E0,-1.4490174E0,-5.538694E-1,6.569005E-1,-6.009659E-1,-1.1258821E0,5.4263384E-3,1.2992373E0,5.010991E-1,-1.7132998E-1,-1.4953874E0,-9.896697E-1,5.7023734E-1,-7.9415804E-1,7.9813E-1,2.4252404E-1,-1.2087193E0,8.932704E-2,-8.0242515E-2,-9.4565225E-1,3.053655E-1,1.3735889E0,6.0582185E-1,8.8466257E-1,-3.8615397E-1,-7.3935086E-1,6.713831E-1,-4.046312E-1,-1.5300046E0,-1.2998129E0,9.5891654E-2,8.896862E-1,-9.241417E-1,8.791964E-3,-6.263646E-2,-3.3920413E-1,1.0202773E0,6.874314E-1,-5.725115E-2,-1.357594E0,1.0437605E-2,-5.434464E-1,3.798516E-2,1.0247809E-2,-6.9892116E-2,6.411966E-2,-3.4664594E-2,1.3877608E0,-2.211116E-2,-5.31877E-1,8.868128E-1,-4.765393E-1,1.0705476E0,-9.8509E-1,2.2379665E-1,-5.6649633E-2,1.9608114E-2,5.1064797E-2,-6.1271E-3,-6.553682E-2,1.4408268E-2,-7.715061E-2,1.1371451E-2,-6.88716E-2,2.6799653E-2,-2.7917106E-2,5.4805767E-2,5.3513724E-2,-2.2731924E-2,-5.9514135E-2,-7.7815163E-3,-6.2482357E-2,3.1611934E-2,-2.6471287E-2,5.5737592E-2,5.289042E-2,-3.710204E-2,-7.4112624E-2,-5.501087E-3,7.502962E-3,-5.073565E-2,-4.8696246E-2,1.6193405E-2,6.977801E-2,8.562991E-3,3.1730775E-2,-4.9138825E-2,5.1615775E-2,-3.628905E-2,3.281221E-2,-6.38037E-2,5.8546852E-2,1.34451E-3,7.857855E-3,-6.4120375E-2,5.207619E-2,-2.4640277E-2],"categories":[],"categories_nodes":[],"categories_segments":[],"categories_sizes":[],"default_left":[0,0,0,0,0,0,0,0,0,0,0,0,0,0,0,0,0,0,0,0,0,0,0,0,0,0,0,0,0,0,0,0,0,0,0,0,0,0,0,0,0,0,0,0,0,0,0,0,0,0,0,0,0,0,0,0,0,0,0,0,0,0,0,0,0,0,0,0,0,0,0,0,0,0,0,0,0,0,0,0,0,0,0,0,0,0,0,0,0,0,0,0,0,0,0,0,0,0,0,0,0,0,0],"id":7,"left_children":[1,3,5,7,9,11,13,15,17,19,21,23,25,27,29,31,33,35,37,39,41,43,45,47,-1,49,51,53,55,57,59,61,63,65,67,69,71,73,75,-1,-1,77,79,81,-1,83,-1,85,-1,-1,-1,-1,87,89,-1,91,93,95,97,99,101,-1,-1,-1,-1,-1,-1,-1,-1,-1,-1,-1,-1,-1,-1,-1,-1,-1,-1,-1,-1,-1,-1,-1,-1,-1,-1,-1,-1,-1,-1,-1,-1,-1,-1,-1,-1,-1,-1,-1,-1,-1,-1],"loss_changes":[5.8291833E2,1.0875015E2,8.3723114E1,3.526587E1,2.2126266E1,1.1856083E1,2.9706879E1,1.1519257E1,2.9838938E1,9.162214E0,1.11307335E1,9.158276E0,7.142515E0,1.070932E1,2.14845E1,4.368896E0,6.61792E0,1.4746166E1,9.094852E0,2.0851026E0,1.0053925E1,6.7667885E0,2.9116535E0,2.6721454E0,0E0,3.4105659E0,6.36372E0,5.7962036E0,7.9739885E0,1.1562202E1,7.3250637E0,2.808795E0,1.1756595E0,4.932162E0,4.589386E0,5.561264E0,7.5364494E0,4.0763807E0,5.3931713E-1,0E0,0E0,7.0068874E0,5.3329163E0,4.9989996E0,0E0,1.6105003E0,0E0,1.2382569E0,0E0,0E0,0E0,0E0,5.395128E0,1.6592407E0,0E0,3.3972588E0,5.253024E0,6.2173796E0,4.0273094E0,3.5967903E0,6.636841E0,0E0,0E0,0E0,0E0,0E0,0E0,0E0,0E0,0E0,0E0,0E0,0E0,0E0,0E0,0E0,0E0,0E0,0E0,0E0,0E0,0E0,0E0,0E0,0E0,0E0,0E0,0E0,0E0,0E0,0E0,0E0,0E0,0E0,0E0,0E0,0E0,0E0,0E0,0E0,0E0,0E0,0E0],"parents":[2147483647,0,0,1,1,2,2,3,3,4,4,5,5,6,6,7,7,8,8,9,9,10,10,11,11,12,12,13,13,14,14,15,15,16,16,17,17,18,18,19,19,20,20,21,21,22,22,23,23,25,25,26,26,27,27,28,28,29,29,30,30,31,31,32,32,33,33,34,34,35,35,36,36,37,37,38,38,41,41,42,42,43,43,45,45,47,47,52,52,53,53,55,55,56,56,57,57,58,58,59,59,60,60],"right_children":[2,4,6,8,10,12,14,16,18,20,22,24,26,28,30,32,34,36,38,40,42,44,46,48,-1,50,52,54,56,58,60,62,64,66,68,70,72,74,76,-1,-1,78,80,82,-1,84,-1,86,-1,-1,-1,-1,88,90,-1,92,94,96,98,100,102,-1,-1,-1,-1,-1,-1,-1,-1,-1,-1,-1,-1,-1,-1,-1,-1,-1,-1,-1,-1,-1,-1,-1,-1,-1,-1,-1,-1,-1,-1,-1,-1,-1,-1,-1,-1,-1,-1,-1,-1,-1,-1],"split_conditions":[-9.014374E-1,4.6883747E-1,-2.692795E0,3.907762E-2,3.0853708E0,-1.1129527E0,-6.0327994E-3,-2.8887796E0,-1.2352933E0,-6.4998037E-1,-9.17359E-1,1.1511565E0,1.265764E-2,1.5142012E0,1.19584024E-1,6.7858917E-1,-1.8986334E0,4.2857996E-1,1.11101806E-1,-9.733335E-1,-3.647063E-1,6.044102E-1,5.829231E-1,4.0474993E-1,-8.0242515E-2,-2.5043365E-1,1.8130204E-2,2.2883165E0,-4.791574E-1,-5.346378E-1,2.0388703E0,-1.0632296E0,-9.01393E-1,4.8571357E-1,4.418456E0,3.9076886E0,4.4962683E-1,1.384998E0,-1.4193782E-1,8.791964E-3,-6.263646E-2,2.9491785E0,-7.719754E-1,-1.6838757E-2,-5.725115E-2,7.362575E-2,1.0437605E-2,-2.549641E-1,3.798516E-2,1.0247809E-2,-6.9892116E-2,6.411966E-2,-3.8292053E-1,6.7092127E-1,-2.211116E-2,-4.830015E-1,-8.8559437E-1,1.7498913E0,1.875341E-1,-3.3455488E-1,-1.783092E-1,-5.6649633E-2,1.9608114E-2,5.1064797E-2,-6.1271E-3,-6.553682E-2,1.4408268E-2,-7.715061E-2,1.1371451E-2,-6.88716E-2,2.6799653E-2,-2.7917106E-2,5.4805767E-2,5.3513724E-2,-2.2731924E-2,-5.9514135E-2,-7.7815163E-3,-6.2482357E-2,3.1611934E-2,-2.6471287E-2,5.5737592E-2,5.289042E-2,-3.710204E-2,-7.4112624E-2,-5.501087E-3,7.502962E-3,-5.073565E-2,-4.8696246E-2,1.6193405E-2,6.977801E-2,8.562991E-3,3.1730775E-2,-4.9138825E-2,5.1615775E-2,-3.628905E-2,3.281221E-2,-6.38037E-2,5.8546852E-2,1.34451E-3,7.857855E-3,-6.4120375E-2,5.207619E-2,-2.4640277E-2],"split_indices":[113,114,7,342,85,349,99,43,22,17,347,86,172,21,288,143,122,75,356,347,187,298,271,481,0,64,356,35,247,116,75,346,368,344,32,32,298,64,222,0,0,30,282,142,0,142,0,166,0,0,0,0,451,441,0,324,319,188,388,123,278,0,0,0,0,0,0,0,0,0,0,0,0,0,0,0,0,0,0,0,0,0,0,0,0,0,0,0,0,0,0,0,0,0,0,0,0,0,0,0,0,0,0],"split_type":[0,0,0,0,0,0,0,0,0,0,0,0,0,0,0,0,0,0,0,0,0,0,0,0,0,0,0,0,0,0,0,0,0,0,0,0,0,0,0,0,0,0,0,0,0,0,0,0,0,0,0,0,0,0,0,0,0,0,0,0,0,0,0,0,0,0,0,0,0,0,0,0,0,0,0,0,0,0,0,0,0,0,0,0,0,0,0,0,0,0,0,0,0,0,0,0,0,0,0,0,0,0,0],"sum_hessian":[6.38769E2,3.1726834E2,3.215006E2,2.5651178E2,6.0756565E1,3.7514153E1,2.8398645E2,1.977538E2,5.8757977E1,4.0615574E1,2.0140995E1,1.4488318E1,2.3025833E1,2.2285959E2,6.112687E1,7.089997E0,1.906638E2,4.2428604E1,1.6329374E1,3.192379E0,3.7423195E1,8.686336E0,1.1454659E1,4.326043E0,1.0162275E1,5.004434E0,1.8021399E1,2.0039162E2,2.2467972E1,4.2679325E1,1.8447544E1,4.3085337E0,2.781463E0,6.2552423E0,1.8440857E2,3.284692E1,9.581681E0,1.3786846E1,2.5425274E0,1.2226678E0,1.9697112E0,6.029068E0,3.1394125E1,6.959417E0,1.726918E0,1.0404168E1,1.0504911E0,2.3228383E0,2.0032046E0,1.5661288E0,3.4383051E0,3.9371505E0,1.4084249E1,1.9907364E2,1.3179717E0,4.273246E0,1.8194727E1,4.940118E0,3.773921E1,8.997495E0,9.450049E0,3.1955333E0,1.1130006E0,1.7318033E0,1.0496596E0,2.3238893E0,3.9313533E0,1.831748E2,1.23376E0,3.1754026E1,1.0928952E0,6.059815E0,3.521866E0,1.233385E1,1.452996E0,1.4808741E0,1.0616533E0,2.964415E0,3.0646532E0,1.5393668E0,2.9854757E1,5.73379E0,1.2256272E0,9.287995E0,1.1161733E0,1.2155882E0,1.1072501E0,3.4167783E0,1.066747E1,1.976592E2,1.4144411E0,1.0777156E0,3.1955304E0,1.7018965E1,1.1757622E0,2.1182258E0,2.8218923E0,3.4316357E1,3.4228504E0,1.955642E0,7.041853E0,4.201839E0,5.2482104E0],"tree_param":{"num_deleted":"0","num_feature":"512","num_nodes":"103","size_leaf_vector":"1"}},{"base_weights":[-1.4363779E-2,-1.0472285E0,8.686145E-1,4.5243075E-1,-1.2112994E0,1.2261738E0,2.4115297E-1,6.019581E-1,-6.108255E-2,-1.3975556E0,-6.48687E-1,1.2862705E0,-2.2650994E-3,-2.151538E-1,8.7588835E-1,-8.729796E-1,7.653607E-1,-2.4009171E-1,-1.4485099E0,-1.0088744E0,3.1454378E-1,1.3212781E0,1.3749257E-1,-5.0880253E-1,5.524085E-2,-5.445768E-1,5.742277E-1,1.4605618E-2,1.0971565E0,-6.0681757E-2,-5.9855985E-3,9.94311E-1,-2.612873E-1,-8.1154066E-1,8.549743E-1,-1.4978691E0,-3.8187173E-1,-1.2520713E0,9.292644E-2,9.3598825E-1,-4.1731527E-1,-1.7779645E-2,1.3353388E0,-5.7352483E-2,8.9140487E-1,-1.2660823E0,3.7304595E-1,-8.539303E-1,-2.6951164E-2,9.631238E-1,-5.918774E-1,4.730782E-1,-1.0123234E0,-4.8392396E-2,1.1783429E0,-2.545707E-2,5.5158228E-2,3.436621E-2,-5.233099E-2,2.2009635E-2,-6.853966E-2,6.2401216E-2,1.9336523E-3,-7.55693E-2,1.914499E-2,2.5547732E-2,-4.9358606E-2,7.891796E-3,-6.5712765E-2,2.5192533E-2,-5.7691645E-2,-3.5665247E-3,5.952933E-2,2.2235412E-2,-4.7180336E-2,7.585869E-3,6.736745E-2,1.2791477E-3,5.885479E-2,-1.1892323E-3,-8.2104705E-2,-2.5188206E-2,4.236154E-2,3.238216E-2,-4.8540067E-2,-2.3589535E-2,3.3567924E-2,5.7207823E-2,-2.5191054E-2,3.2391097E-2,-5.0851114E-2,4.630448E-2,-3.28238E-2,-8.1112207E-4,-6.905749E-2,6.2414806E-2,-1.8312607E-2],"categories":[],"categories_nodes":[],"categories_segments":[],"categories_sizes":[],"default_left":[0,0,0,0,0,0,0,0,0,0,0,0,0,0,0,0,0,0,0,0,0,0,0,0,0,0,0,0,0,0,0,0,0,0,0,0,0,0,0,0,0,0,0,0,0,0,0,0,0,0,0,0,0,0,0,0,0,0,0,0,0,0,0,0,0,0,0,0,0,0,0,0,0,0,0,0,0,0,0,0,0,0,0,0,0,0,0,0,0,0,0,0,0,0,0,0,0],"id":8,"left_children":[1,3,5,7,9,11,13,15,-1,17,19,21,23,25,27,29,31,33,35,37,39,41,43,45,-1,47,49,51,53,-1,-1,55,57,59,61,63,65,67,69,71,73,-1,75,-1,77,79,81,83,85,87,89,91,93,-1,95,-1,-1,-1,-1,-1,-1,-1,-1,-1,-1,-1,-1,-1,-1,-1,-1,-1,-1,-1,-1,-1,-1,-1,-1,-1,-1,-1,-1,-1,-1,-1,-1,-1,-1,-1,-1,-1,-1,-1,-1,-1,-1],"loss_changes":[5.7135443E2,7.159039E1,7.548213E1,8.045162E0,2.6394287E1,1.5868622E1,3.605971E1,7.290372E0,0E0,1.1144928E1,2.3446037E1,8.058075E0,6.742747E0,1.9258001E1,9.892921E0,6.7780757E-1,6.1994305E0,6.585746E0,9.244263E0,1.3181332E1,8.989207E0,5.1600647E0,7.9711814E0,5.9792833E0,0E0,8.290386E0,1.0518965E1,5.959732E0,8.0734825E0,0E0,0E0,3.9771519E0,4.74196E0,5.2935553E0,1.1438446E0,5.100342E0,5.6863556E0,3.7153587E0,5.575063E0,2.7861319E0,4.6720867E0,0E0,2.599884E0,0E0,1.227499E0,2.1396441E0,2.331966E0,6.325741E0,6.6703105E0,5.04653E0,3.8770392E0,5.0748615E0,1.4146419E0,0E0,4.805168E0,0E0,0E0,0E0,0E0,0E0,0E0,0E0,0E0,0E0,0E0,0E0,0E0,0E0,0E0,0E0,0E0,0E0,0E0,0E0,0E0,0E0,0E0,0E0,0E0,0E0,0E0,0E0,0E0,0E0,0E0,0E0,0E0,0E0,0E0,0E0,0E0,0E0,0E0,0E0,0E0,0E0,0E0],"parents":[2147483647,0,0,1,1,2,2,3,3,4,4,5,5,6,6,7,7,9,9,10,10,11,11,12,12,13,13,14,14,15,15,16,16,17,17,18,18,19,19,20,20,21,21,22,22,23,23,25,25,26,26,27,27,28,28,31,31,32,32,33,33,34,34,35,35,36,36,37,37,38,38,39,39,40,40,42,42,44,44,45,45,46,46,47,47,48,48,49,49,50,50,51,51,52,52,54,54],"right_children":[2,4,6,8,10,12,14,16,-1,18,20,22,24,26,28,30,32,34,36,38,40,42,44,46,-1,48,50,52,54,-1,-1,56,58,60,62,64,66,68,70,72,74,-1,76,-1,78,80,82,84,86,88,90,92,94,-1,96,-1,-1,-1,-1,-1,-1,-1,-1,-1,-1,-1,-1,-1,-1,-1,-1,-1,-1,-1,-1,-1,-1,-1,-1,-1,-1,-1,-1,-1,-1,-1,-1,-1,-1,-1,-1,-1,-1,-1,-1,-1,-1],"split_conditions":[1.1837072E0,-1.3645505E0,-2.0101082E-1,-9.080709E-1,2.8846316E-2,2.5207288E0,-9.470101E-3,-4.5388582E-1,-6.108255E-2,-4.7216496E-1,-8.0925465E-1,2.4342093E0,1.200882E0,2.2444904E0,9.178189E-2,-7.327436E-1,-6.288188E-1,9.688187E-1,9.6939343E-1,6.152186E-1,-3.0220774E-1,-2.9573343E0,9.8571874E-2,-1.0778512E0,5.524085E-2,4.2857996E-1,8.707776E-2,4.7568402E-1,-2.0252605E-1,-6.0681757E-2,-5.9855985E-3,-1.2305429E0,6.000392E-1,-3.2687638E-2,-3.7275276E-1,2.3615797E0,-3.0317482E-1,-7.5511676E-1,-9.7874695E-1,4.1555524E-1,-1.636441E-1,-1.7779645E-2,-1.495578E0,-5.7352483E-2,-3.704565E-1,-2.2934139E-2,2.4322584E0,5.6221993E-3,-2.2261512E-1,3.9416867E-1,-5.8960295E-1,1.3313241E0,6.959867E-1,-4.8392396E-2,7.0616806E-1,-2.545707E-2,5.5158228E-2,3.436621E-2,-5.233099E-2,2.2009635E-2,-6.853966E-2,6.2401216E-2,1.9336523E-3,-7.55693E-2,1.914499E-2,2.5547732E-2,-4.9358606E-2,7.891796E-3,-6.5712765E-2,2.5192533E-2,-5.7691645E-2,-3.5665247E-3,5.952933E-2,2.2235412E-2,-4.7180336E-2,7.585869E-3,6.736745E-2,1.2791477E-3,5.885479E-2,-1.1892323E-3,-8.2104705E-2,-2.5188206E-2,4.236154E-2,3.238216E-2,-4.8540067E-2,-2.3589535E-2,3.3567924E-2,5.7207823E-2,-2.5191054E-2,3.2391097E-2,-5.0851114E-2,4.630448E-2,-3.28238E-2,-8.1112207E-4,-6.905749E-2,6.2414806E-2,-1.8312607E-2],"split_indices":[121,108,108,319,342,189,342,229,0,338,23,73,114,11,383,380,96,106,40,19,233,7,383,349,0,75,59,143,431,0,0,367,300,409,420,22,357,396,347,379,295,0,113,0,357,30,92,270,291,428,8,86,471,0,143,0,0,0,0,0,0,0,0,0,0,0,0,0,0,0,0,0,0,0,0,0,0,0,0,0,0,0,0,0,0,0,0,0,0,0,0,0,0,0,0,0,0],"split_type":[0,0,0,0,0,0,0,0,0,0,0,0,0,0,0,0,0,0,0,0,0,0,0,0,0,0,0,0,0,0,0,0,0,0,0,0,0,0,0,0,0,0,0,0,0,0,0,0,0,0,0,0,0,0,0,0,0,0,0,0,0,0,0,0,0,0,0,0,0,0,0,0,0,0,0,0,0,0,0,0,0,0,0,0,0,0,0,0,0,0,0,0,0,0,0,0,0],"sum_hessian":[6.2448975E2,2.8773062E2,3.3675916E2,2.820162E1,2.59529E2,2.1390887E2,1.22850296E2,2.6477133E1,1.7244867E0,1.9386482E2,6.566416E1,2.0388739E2,1.0021487E1,7.1855156E1,5.0995132E1,2.2076347E0,2.4269499E1,8.415374E0,1.8544945E2,4.775822E1,1.790594E1,1.9771219E2,6.1752005E0,7.2463727E0,2.775114E0,5.091679E1,2.0938368E1,1.06410475E1,4.0354088E1,1.0993207E0,1.108314E0,1.9869867E1,4.3996325E0,5.6998677E0,2.7155058E0,1.7686084E2,8.588612E0,3.9011055E1,8.747168E0,9.532595E0,8.373343E0,1.4420727E0,1.9627011E2,2.0910068E0,4.0841937E0,3.664124E0,3.582249E0,3.146335E1,1.9453442E1,1.5832347E1,5.1060214E0,7.7295265E0,2.911521E0,1.1133876E0,3.92407E1,1.0932286E0,1.8776638E1,2.049191E0,2.3504412E0,1.8259251E0,3.8739426E0,1.4759549E0,1.2395508E0,1.7579382E2,1.0670122E0,3.5331028E0,5.0555086E0,1.5829252E0,3.7428127E1,7.0269876E0,1.7201803E0,2.06848E0,7.4641147E0,3.2329853E0,5.140358E0,2.1084726E0,1.9416164E2,1.2836078E0,2.800586E0,1.0983998E0,2.5657241E0,1.2354367E0,2.3468122E0,1.9440784E0,2.9519272E1,1.2081576E1,7.3718643E0,1.4289011E1,1.5433359E0,1.1701524E0,3.9358687E0,5.6455064E0,2.0840201E0,1.0688443E0,1.8426766E0,3.7724045E1,1.5166539E0],"tree_param":{"num_deleted":"0","num_feature":"512","num_nodes":"97","size_leaf_vector":"1"}},{"base_weights":[1.0170489E-2,-8.881385E-1,9.123424E-1,-1.144006E0,2.3629148E-1,-3.0572018E-1,1.0877774E0,-1.3235952E0,-4.2564544E-1,-2.7305087E-1,7.3137665E-1,-5.871448E-1,5.471086E-1,1.2406373E0,4.156536E-1,3.556005E-2,-1.3846267E0,6.223159E-1,-7.289263E-1,6.086525E-1,-7.055941E-1,9.5907396E-1,-6.028691E-1,1.0143826E-1,-1.0065709E0,1.0843855E0,-8.165009E-1,1.3036072E0,5.086571E-1,-1.1427958E0,5.9227824E-1,7.532652E-1,-6.08422E-1,-5.108426E-1,-1.4230206E0,1.188001E0,-2.2750421E-1,-1.1861621E0,-5.8218703E-2,-4.9962886E-2,9.186533E-1,5.333354E-2,-1.1196568E0,-1.217984E-1,1.2706759E0,-1.0223528E0,2.0237193E-2,9.0760976E-1,-4.419075E-1,2.06674E-2,-1.1508483E0,5.5701155E-3,1.2186664E0,-5.5207204E-2,-5.1305033E-3,2.8323928E-1,1.3355255E0,-7.9390734E-1,7.613459E-1,1.3298328E-3,-7.083364E-2,-7.6452434E-1,7.620288E-1,-1.1856891E-2,5.704087E-2,3.7910517E-2,-5.7464976E-2,-5.6719508E-2,1.5657062E-2,-5.6621726E-3,-7.2004415E-2,6.649203E-2,9.285135E-3,-5.3318184E-2,5.21573E-2,-6.4255916E-2,9.952623E-3,4.0764436E-2,-2.2490006E-2,-1.3068761E-2,6.1007332E-2,-3.481049E-2,4.0313307E-2,-6.6268004E-2,1.0946377E-2,2.7485017E-2,-5.7183858E-2,1.3960754E-2,6.661299E-2,-5.977459E-2,-1.4989431E-2,6.1267402E-2,-9.30864E-4,-6.504249E-2,1.2370813E-2,1.0858494E-2,-6.446578E-2,1.9443074E-2,6.595699E-2,-5.643745E-2,4.6212282E-2,2.2108299E-3,6.7145936E-2,7.5781415E-3,-6.2912606E-2,-2.3641927E-2,4.7758117E-2,2.920718E-2,-6.9373265E-2,4.4704802E-2,-1.915657E-2],"categories":[],"categories_nodes":[],"categories_segments":[],"categories_sizes":[],"default_left":[0,0,0,0,0,0,0,0,0,0,0,0,0,0,0,0,0,0,0,0,0,0,0,0,0,0,0,0,0,0,0,0,0,0,0,0,0,0,0,0,0,0,0,0,0,0,0,0,0,0,0,0,0,0,0,0,0,0,0,0,0,0,0,0,0,0,0,0,0,0,0,0,0,0,0,0,0,0,0,0,0,0,0,0,0,0,0,0,0,0,0,0,0,0,0,0,0,0,0,0,0,0,0,0,0,0,0,0,0,0,0],"id":9,"left_children":[1,3,5,7,9,11,13,15,17,19,21,23,25,27,29,31,33,35,37,39,41,43,45,47,49,51,53,55,57,59,61,63,65,67,69,71,73,75,77,-1,79,81,83,85,87,89,-1,91,93,-1,95,-1,97,-1,-1,99,101,103,105,-1,-1,107,109,-1,-1,-1,-1,-1,-1,-1,-1,-1,-1,-1,-1,-1,-1,-1,-1,-1,-1,-1,-1,-1,-1,-1,-1,-1,-1,-1,-1,-1,-1,-1,-1,-1,-1,-1,-1,-1,-1,-1,-1,-1,-1,-1,-1,-1,-1,-1,-1],"loss_changes":[4.9580014E2,8.846617E1,6.555647E1,3.1675537E1,1.4738259E1,9.731215E0,2.6918E1,1.6593262E1,1.6806702E1,1.1545055E1,9.542903E0,8.755315E0,8.391623E0,9.340851E0,1.4709423E1,4.8702908E0,5.6772156E0,6.0812654E0,1.2309742E1,5.9670143E0,6.3498354E0,8.774368E0,2.4915352E0,5.767004E0,4.3089714E0,8.806124E-1,5.9849524E-1,6.1095886E0,6.8028975E0,1.8090491E0,1.1280481E1,2.174852E0,4.99938E0,5.2850256E0,3.912323E0,8.076048E-1,7.1560035E0,3.5388412E0,6.323308E0,0E0,3.525535E0,5.087675E0,3.8687115E0,5.184649E0,8.4630585E-1,1.1129141E-1,0E0,1.5707107E0,5.0529404E0,0E0,3.547573E0,0E0,4.8570633E-2,0E0,0E0,7.660905E0,1.782196E0,1.7489166E0,4.346574E0,0E0,0E0,5.5691805E0,6.6619167E0,0E0,0E0,0E0,0E0,0E0,0E0,0E0,0E0,0E0,0E0,0E0,0E0,0E0,0E0,0E0,0E0,0E0,0E0,0E0,0E0,0E0,0E0,0E0,0E0,0E0,0E0,0E0,0E0,0E0,0E0,0E0,0E0,0E0,0E0,0E0,0E0,0E0,0E0,0E0,0E0,0E0,0E0,0E0,0E0,0E0,0E0,0E0,0E0],"parents":[2147483647,0,0,1,1,2,2,3,3,4,4,5,5,6,6,7,7,8,8,9,9,10,10,11,11,12,12,13,13,14,14,15,15,16,16,17,17,18,18,19,19,20,20,21,21,22,22,23,23,24,24,25,25,26,26,27,27,28,28,29,29,30,30,31,31,32,32,33,33,34,34,35,35,36,36,37,37,38,38,40,40,41,41,42,42,43,43,44,44,45,45,47,47,48,48,50,50,52,52,55,55,56,56,57,57,58,58,61,61,62,62],"right_children":[2,4,6,8,10,12,14,16,18,20,22,24,26,28,30,32,34,36,38,40,42,44,46,48,50,52,54,56,58,60,62,64,66,68,70,72,74,76,78,-1,80,82,84,86,88,90,-1,92,94,-1,96,-1,98,-1,-1,100,102,104,106,-1,-1,108,110,-1,-1,-1,-1,-1,-1,-1,-1,-1,-1,-1,-1,-1,-1,-1,-1,-1,-1,-1,-1,-1,-1,-1,-1,-1,-1,-1,-1,-1,-1,-1,-1,-1,-1,-1,-1,-1,-1,-1,-1,-1,-1,-1,-1,-1,-1,-1,-1],"split_conditions":[-9.014374E-1,5.6145257E-1,-2.6649158E0,4.612029E-1,4.916546E-1,-1.2924053E-2,2.0204484E-1,-5.5732316E-1,-1.8070138E-1,4.0914142E-1,5.011728E-1,-8.6453474E-1,7.5883776E-1,1.6107696E0,-1.6118366E0,7.821014E-1,-1.8417859E0,-9.335759E-4,5.209066E-1,-2.1027735E-1,9.73719E-2,7.6683275E-2,-1.2054632E0,1.2288767E0,-6.852838E-1,8.7863934E-1,2.5919136E-1,-2.5988488E0,7.965517E-1,-1.5748479E0,-3.188328E-1,-1.8709768E0,-5.9073687E-1,-1.0563807E0,-1.1423539E0,4.7390085E-1,7.5714713E-1,1.3301555E0,9.230144E-1,-4.9962886E-2,1.0744191E0,6.2188003E-2,-2.871941E-1,6.8190444E-1,1.6819973E-1,-1.143011E0,2.0237193E-2,6.694467E-1,7.253921E-2,2.06674E-2,-4.207864E-1,5.5701155E-3,-5.1113796E-1,-5.5207204E-2,-5.1305033E-3,-2.3171683E-1,-9.636755E-1,-3.8758716E-1,8.0664146E-1,1.3298328E-3,-7.083364E-2,4.8011574E-1,2.467265E-1,-1.1856891E-2,5.704087E-2,3.7910517E-2,-5.7464976E-2,-5.6719508E-2,1.5657062E-2,-5.6621726E-3,-7.2004415E-2,6.649203E-2,9.285135E-3,-5.3318184E-2,5.21573E-2,-6.4255916E-2,9.952623E-3,4.0764436E-2,-2.2490006E-2,-1.3068761E-2,6.1007332E-2,-3.481049E-2,4.0313307E-2,-6.6268004E-2,1.0946377E-2,2.7485017E-2,-5.7183858E-2,1.3960754E-2,6.661299E-2,-5.977459E-2,-1.4989431E-2,6.1267402E-2,-9.30864E-4,-6.504249E-2,1.2370813E-2,1.0858494E-2,-6.446578E-2,1.9443074E-2,6.595699E-2,-5.643745E-2,4.6212282E-2,2.2108299E-3,6.7145936E-2,7.5781415E-3,-6.2912606E-2,-2.3641927E-2,4.7758117E-2,2.920718E-2,-6.9373265E-2,4.4704802E-2,-1.915657E-2],"split_indices":[113,114,7,75,344,342,99,313,249,125,401,66,213,21,22,268,122,434,344,39,411,383,194,73,296,260,257,4,495,114,291,75,3,341,208,24,269,62,326,0,299,109,348,19,172,301,0,34,474,0,491,0,249,0,0,291,261,324,260,0,0,41,330,0,0,0,0,0,0,0,0,0,0,0,0,0,0,0,0,0,0,0,0,0,0,0,0,0,0,0,0,0,0,0,0,0,0,0,0,0,0,0,0,0,0,0,0,0,0,0,0],"split_type":[0,0,0,0,0,0,0,0,0,0,0,0,0,0,0,0,0,0,0,0,0,0,0,0,0,0,0,0,0,0,0,0,0,0,0,0,0,0,0,0,0,0,0,0,0,0,0,0,0,0,0,0,0,0,0,0,0,0,0,0,0,0,0,0,0,0,0,0,0,0,0,0,0,0,0,0,0,0,0,0,0,0,0,0,0,0,0,0,0,0,0,0,0,0,0,0,0,0,0,0,0,0,0,0,0,0,0,0,0,0,0],"sum_hessian":[6.09775E2,3.0554944E2,3.0422556E2,2.4889516E2,5.665429E1,3.820712E1,2.6601843E2,1.9844232E2,5.045283E1,2.8146114E1,2.8508175E1,2.896162E1,9.2455E0,2.1603922E2,4.997922E1,8.545848E0,1.8989647E2,1.108783E1,3.9365E1,9.129415E0,1.9016699E1,2.4592499E1,3.915676E0,1.1250133E1,1.7711489E1,6.7791924E0,2.4663072E0,1.9820712E2,1.7832088E1,4.5308685E0,4.5448353E1,3.9613278E0,4.5845203E0,8.594916E0,1.8130156E2,6.417835E0,4.6699944E0,2.2950577E1,1.6414425E1,1.1162506E0,8.013164E0,7.020377E0,1.1996322E1,5.639512E0,1.8952988E1,2.754366E0,1.1613102E0,4.2596326E0,6.9905E0,1.4616413E0,1.6249847E1,1.0440141E0,5.7351785E0,1.3683217E0,1.0979855E0,6.311581E0,1.9189555E2,2.549264E0,1.5282825E1,1.0311178E0,3.4997506E0,4.664174E0,4.078418E1,1.2232877E0,2.73804E0,1.1860129E0,3.3985074E0,4.6780787E0,3.9168377E0,2.4303699E0,1.7887119E2,5.335933E0,1.0819021E0,2.9097834E0,1.7602112E0,2.1487804E1,1.4627736E0,4.745814E0,1.1668612E1,1.6577778E0,6.3553863E0,3.5558596E0,3.4645176E0,1.0406942E1,1.5893791E0,3.6820354E0,1.9574766E0,1.4320356E0,1.7520952E1,1.6939521E0,1.0604138E0,2.9311638E0,1.3284689E0,2.7173574E0,4.273143E0,1.4413501E0,1.4808496E1,1.1454285E0,4.58975E0,1.7330883E0,4.5784926E0,1.1321328E0,1.9076341E2,1.0615003E0,1.4877636E0,1.8788786E0,1.3403947E1,1.4933499E0,3.170824E0,3.6763603E1,4.020575E0],"tree_param":{"num_deleted":"0","num_feature":"512","num_nodes":"111","size_leaf_vector":"1"}},{"base_weights":[4.70421E-4,-9.17672E-1,8.333448E-1,5.700188E-1,-1.0837755E0,2.9788345E-1,1.2177546E0,-7.979717E-1,7.4655956E-1,-1.1870463E0,6.893139E-2,-3.741404E-1,6.590852E-1,1.2486235E0,-4.2303186E-2,-5.7526387E-2,2.0685948E-3,8.8549596E-1,-5.2194715E-2,-1.2889805E0,-2.0812151E-1,8.120256E-1,-5.294726E-1,-6.4324725E-1,7.3462504E-1,8.470648E-1,-3.637618E-1,1.2671707E0,-2.0407734E-2,-3.16101E-1,1.0121816E0,4.342484E-2,-1.3050169E0,-7.137461E-1,9.3553776E-1,1.0634277E0,-1.7115925E-2,-1.1214563E0,2.3966786E-1,-7.6480587E-3,-9.640186E-1,-3.279956E-2,1.0618703E0,1.119528E0,3.5963273E-1,-1.209386E0,1.4513546E-1,1.2800411E0,-1.3182162E-2,2.8966397E-2,-5.1201325E-2,3.5120882E-3,5.8541298E-2,-3.011672E-2,-6.7874365E-2,-6.1972596E-2,3.7239862E-3,6.339695E-2,3.65051E-3,-5.378131E-3,6.270855E-2,-9.965453E-4,-6.928001E-2,4.3715697E-2,-2.8285874E-2,2.8019896E-2,-4.0262483E-2,2.135366E-2,-6.632902E-2,-1.2000821E-3,6.165566E-2,5.9215415E-2,-2.929212E-2,3.8111906E-2,-2.5368366E-2,-4.5621283E-3,-7.54091E-2,4.7319293E-2,-3.0544585E-2,1.3806353E-3,6.437499E-2],"categories":[],"categories_nodes":[],"categories_segments":[],"categories_sizes":[],"default_left":[0,0,0,0,0,0,0,0,0,0,0,0,0,0,0,0,0,0,0,0,0,0,0,0,0,0,0,0,0,0,0,0,0,0,0,0,0,0,0,0,0,0,0,0,0,0,0,0,0,0,0,0,0,0,0,0,0,0,0,0,0,0,0,0,0,0,0,0,0,0,0,0,0,0,0,0,0,0,0,0,0],"id":10,"left_children":[1,3,5,7,9,11,13,15,17,19,21,23,25,27,-1,-1,-1,29,-1,31,33,35,37,39,41,43,45,47,-1,49,51,-1,53,55,57,59,-1,61,63,65,67,-1,69,71,73,75,77,79,-1,-1,-1,-1,-1,-1,-1,-1,-1,-1,-1,-1,-1,-1,-1,-1,-1,-1,-1,-1,-1,-1,-1,-1,-1,-1,-1,-1,-1,-1,-1,-1,-1],"loss_changes":[4.5655096E2,7.0792496E1,6.4075134E1,7.6423388E0,3.0532867E1,3.2323593E1,1.2645264E1,1.1775205E0,7.4814997E0,2.316397E1,1.02029705E1,1.444697E1,1.690384E1,6.036957E0,0E0,0E0,0E0,4.125925E0,0E0,8.485016E0,1.4163539E1,3.3236809E0,6.087579E0,7.785184E0,5.071635E0,9.320618E0,6.2430553E0,3.8422546E0,0E0,2.587885E0,3.3331604E0,0E0,6.9736633E0,7.0334415E0,2.0828657E0,2.0598354E0,0E0,2.1247864E0,3.7567098E0,6.716137E0,1.3373892E1,0E0,1.5477543E0,5.8296623E0,1.0064078E1,1.667974E0,6.45114E0,1.6138916E0,0E0,0E0,0E0,0E0,0E0,0E0,0E0,0E0,0E0,0E0,0E0,0E0,0E0,0E0,0E0,0E0,0E0,0E0,0E0,0E0,0E0,0E0,0E0,0E0,0E0,0E0,0E0,0E0,0E0,0E0,0E0,0E0,0E0],"parents":[2147483647,0,0,1,1,2,2,3,3,4,4,5,5,6,6,7,7,8,8,9,9,10,10,11,11,12,12,13,13,17,17,19,19,20,20,21,21,22,22,23,23,24,24,25,25,26,26,27,27,29,29,30,30,32,32,33,33,34,34,35,35,37,37,38,38,39,39,40,40,42,42,43,43,44,44,45,45,46,46,47,47],"right_children":[2,4,6,8,10,12,14,16,18,20,22,24,26,28,-1,-1,-1,30,-1,32,34,36,38,40,42,44,46,48,-1,50,52,-1,54,56,58,60,-1,62,64,66,68,-1,70,72,74,76,78,80,-1,-1,-1,-1,-1,-1,-1,-1,-1,-1,-1,-1,-1,-1,-1,-1,-1,-1,-1,-1,-1,-1,-1,-1,-1,-1,-1,-1,-1,-1,-1,-1,-1],"split_conditions":[1.2194339E0,-1.3645505E0,-8.3878815E-1,-4.5388582E-1,4.5279804E-1,-1.2972715E-1,2.2494586E0,-3.737738E-1,-9.080709E-1,1.06835745E-1,1.4967358E-1,4.1405293E-1,-1.117084E0,1.4981874E0,-4.2303186E-2,-5.7526387E-2,2.0685948E-3,-9.6771404E-2,-5.2194715E-2,-5.540555E0,-1.0280643E0,3.923843E-1,2.1289349E0,4.336907E-2,-4.183671E-1,1.6209847E-1,-3.3375323E-1,2.103796E0,-2.0407734E-2,-8.4319204E-1,-9.0127945E-2,4.342484E-2,-1.14046946E-1,4.191608E-2,3.806005E-1,4.7456067E-2,-1.7115925E-2,-8.2908416E-1,8.822577E-1,1.4277029E0,4.6993858E-1,-3.279956E-2,4.697216E-2,7.891547E-1,1.1651471E-1,2.2195112E-2,4.9847078E-1,-9.512018E-1,-1.3182162E-2,2.8966397E-2,-5.1201325E-2,3.5120882E-3,5.8541298E-2,-3.011672E-2,-6.7874365E-2,-6.1972596E-2,3.7239862E-3,6.339695E-2,3.65051E-3,-5.378131E-3,6.270855E-2,-9.965453E-4,-6.928001E-2,4.3715697E-2,-2.8285874E-2,2.8019896E-2,-4.0262483E-2,2.135366E-2,-6.632902E-2,-1.2000821E-3,6.165566E-2,5.9215415E-2,-2.929212E-2,3.8111906E-2,-2.5368366E-2,-4.5621283E-3,-7.54091E-2,4.7319293E-2,-3.0544585E-2,1.3806353E-3,6.437499E-2],"split_indices":[121,108,7,229,114,342,108,123,319,342,264,133,377,72,0,0,0,374,0,43,22,491,28,474,186,59,229,32,0,305,121,0,330,102,185,297,0,280,108,110,314,0,479,372,288,362,263,101,0,0,0,0,0,0,0,0,0,0,0,0,0,0,0,0,0,0,0,0,0,0,0,0,0,0,0,0,0,0,0,0,0],"split_type":[0,0,0,0,0,0,0,0,0,0,0,0,0,0,0,0,0,0,0,0,0,0,0,0,0,0,0,0,0,0,0,0,0,0,0,0,0,0,0,0,0,0,0,0,0,0,0,0,0,0,0,0,0,0,0,0,0,0,0,0,0,0,0,0,0,0,0,0,0,0,0,0,0,0,0,0,0,0,0,0,0],"sum_hessian":[5.950348E2,2.8298096E2,3.120538E2,2.8177765E1,2.5480319E2,1.3114755E2,1.8090627E2,2.81839E0,2.5359375E1,2.3382507E2,2.0978127E1,4.5834896E1,8.531265E1,1.7862947E2,2.276794E0,1.7236464E0,1.0947434E0,2.4002272E1,1.3571035E0,2.1148651E2,2.2338552E1,9.198502E0,1.1779626E1,3.7220917E1,8.61398E0,7.221313E1,1.30995245E1,1.7688446E2,1.7450113E0,2.1466274E0,2.1855644E1,1.1681616E0,2.1031836E2,1.5750841E1,6.5877123E0,7.6181264E0,1.5803747E0,6.397558E0,5.382067E0,1.2827479E1,2.4393436E1,1.4495571E0,7.1644235E0,4.5489025E1,2.6724104E1,4.404377E0,8.6951475E0,1.7557213E2,1.3123199E0,1.028001E0,1.1186265E0,3.3583639E0,1.849728E1,1.5480722E1,1.9483763E2,9.105492E0,6.6453495E0,4.415888E0,2.1718247E0,1.128185E0,6.4899416E0,1.4454095E0,4.952149E0,2.9622338E0,2.4198337E0,7.665537E0,5.161943E0,5.0064697E0,1.9386967E1,1.0930566E0,6.071367E0,4.4118675E1,1.3703518E0,1.8332123E1,8.391981E0,1.2040375E0,3.2003396E0,4.099082E0,4.596065E0,1.0672519E0,1.7450488E2],"tree_param":{"num_deleted":"0","num_feature":"512","num_nodes":"81","size_leaf_vector":"1"}},{"base_weights":[-9.440434E-3,-9.2450106E-1,8.43282E-1,-1.0879097E0,4.3474132E-1,1.588689E-1,1.0981417E0,-4.5018384E-1,-1.2651784E0,6.7268056E-1,-6.29973E-1,-3.3526206E-1,5.595882E-1,1.1953622E0,3.238833E-1,6.4360726E-1,-7.464794E-1,6.353476E-1,-1.2893893E0,9.404966E-1,-2.5674248E-2,4.3570723E-2,-1.1837205E0,2.2051409E-2,-1.1229049E0,-6.0220312E-2,9.3433625E-1,1.238726E0,4.1136628E-1,9.7092605E-1,-2.4905063E-1,1.0482291E0,-6.473532E-1,2.796782E-1,-9.6867436E-1,4.6997946E-2,8.195196E-4,-1.7465322E-1,-1.3260546E0,1.8129495E-1,1.1614609E0,8.20945E-1,-6.125944E-1,-1.6066382E-2,-6.6900805E-2,-5.1361597E-1,4.335975E-1,-1.4661968E0,2.9811105E-1,-5.103218E-1,1.0517452E0,1.0173106E0,-2.3327429E-2,1.2785989E0,7.474394E-1,5.9293814E-2,-2.5052786E-1,1.1138104E0,-1.25724515E-2,4.9635738E-1,-8.7604564E-1,-1.7698687E-3,6.559973E-2,1.4164278E-2,-5.649997E-2,-2.2352746E-2,5.8472633E-2,-5.9281465E-2,1.5109035E-2,-4.355345E-2,3.9233766E-2,-1.9160032E-2,-6.789186E-2,4.178869E-2,-4.4244345E-2,6.376508E-2,-8.903562E-3,5.4656476E-2,1.9983405E-3,-6.0100574E-2,1.2514255E-2,-4.1358955E-2,2.7487403E-2,3.9280344E-2,-2.2133475E-2,-2.2816107E-2,-7.8391604E-2,3.580235E-2,-1.309036E-2,-4.9552474E-2,1.8635781E-2,1.2589102E-2,5.8867663E-2,-9.46842E-3,5.5600177E-2,6.445128E-2,-5.8433185E-3,4.5143034E-2,-1.3276017E-2,1.909945E-2,-5.3710967E-2,6.008696E-2,1.3941471E-2,4.1156005E-2,-2.7435347E-2,-6.0584266E-2,1.9585315E-2],"categories":[],"categories_nodes":[],"categories_segments":[],"categories_sizes":[],"default_left":[0,0,0,0,0,0,0,0,0,0,0,0,0,0,0,0,0,0,0,0,0,0,0,0,0,0,0,0,0,0,0,0,0,0,0,0,0,0,0,0,0,0,0,0,0,0,0,0,0,0,0,0,0,0,0,0,0,0,0,0,0,0,0,0,0,0,0,0,0,0,0,0,0,0,0,0,0,0,0,0,0,0,0,0,0,0,0,0,0,0,0,0,0,0,0,0,0,0,0,0,0,0,0,0,0,0,0],"id":11,"left_children":[1,3,5,7,9,11,13,15,17,19,21,23,25,27,29,31,33,35,37,39,41,-1,43,45,47,49,51,53,55,57,59,61,63,65,67,-1,-1,69,71,73,75,77,79,-1,-1,81,83,85,87,89,91,93,-1,95,97,-1,99,101,-1,103,105,-1,-1,-1,-1,-1,-1,-1,-1,-1,-1,-1,-1,-1,-1,-1,-1,-1,-1,-1,-1,-1,-1,-1,-1,-1,-1,-1,-1,-1,-1,-1,-1,-1,-1,-1,-1,-1,-1,-1,-1,-1,-1,-1,-1,-1,-1],"loss_changes":[4.588936E2,6.3481277E1,5.2926575E1,2.8090515E1,8.317354E0,1.677504E1,1.629773E1,1.8854525E1,9.921722E0,4.87772E0,6.192529E0,1.0758362E1,1.0887772E1,6.17276E0,9.917092E0,7.271438E0,1.0548031E1,5.800607E-1,7.7657166E0,2.9405537E0,4.5609646E0,0E0,2.2993088E-1,6.2228093E0,6.252654E0,9.801265E0,3.8597126E0,2.683136E0,6.3458705E0,2.4564848E0,7.276214E0,2.902217E0,1.9506526E0,6.2122674E0,1.06356735E1,0E0,0E0,5.615692E0,5.1517944E0,4.5212736E0,2.4175663E0,7.579086E-1,3.045131E0,0E0,0E0,4.5503354E0,5.26272E0,2.874279E-1,9.247525E-1,6.248802E0,2.7233553E-1,3.38805E0,0E0,2.6300354E0,2.814044E0,0E0,4.1551294E0,4.9756432E-1,0E0,2.9533582E0,4.011546E0,0E0,0E0,0E0,0E0,0E0,0E0,0E0,0E0,0E0,0E0,0E0,0E0,0E0,0E0,0E0,0E0,0E0,0E0,0E0,0E0,0E0,0E0,0E0,0E0,0E0,0E0,0E0,0E0,0E0,0E0,0E0,0E0,0E0,0E0,0E0,0E0,0E0,0E0,0E0,0E0,0E0,0E0,0E0,0E0,0E0,0E0],"parents":[2147483647,0,0,1,1,2,2,3,3,4,4,5,5,6,6,7,7,8,8,9,9,10,10,11,11,12,12,13,13,14,14,15,15,16,16,17,17,18,18,19,19,20,20,22,22,23,23,24,24,25,25,26,26,27,27,28,28,29,29,30,30,31,31,32,32,33,33,34,34,37,37,38,38,39,39,40,40,41,41,42,42,45,45,46,46,47,47,48,48,49,49,50,50,51,51,53,53,54,54,56,56,57,57,59,59,60,60],"right_children":[2,4,6,8,10,12,14,16,18,20,22,24,26,28,30,32,34,36,38,40,42,-1,44,46,48,50,52,54,56,58,60,62,64,66,68,-1,-1,70,72,74,76,78,80,-1,-1,82,84,86,88,90,92,94,-1,96,98,-1,100,102,-1,104,106,-1,-1,-1,-1,-1,-1,-1,-1,-1,-1,-1,-1,-1,-1,-1,-1,-1,-1,-1,-1,-1,-1,-1,-1,-1,-1,-1,-1,-1,-1,-1,-1,-1,-1,-1,-1,-1,-1,-1,-1,-1,-1,-1,-1,-1,-1],"split_conditions":[1.2194339E0,-2.7106297E-1,-1.23253204E-1,-2.9191092E-1,-1.6493741E-2,4.9006772E-1,6.42639E-1,-3.799536E-1,-1.6008587E0,1.2889287E0,3.1680652E-1,-3.894675E-1,3.004273E-1,1.052841E0,-5.6711966E-1,1.5914875E-1,-1.8148687E-1,-1.8141913E-1,-7.1093135E-2,5.2970177E-1,-3.912961E-1,4.3570723E-2,-3.1516913E-2,-6.1362284E-1,1.8113384E-1,-4.703771E-1,1.6794692E0,1.4676354E0,-5.745504E-1,1.1030252E0,-1.9119582E-1,-8.7322736E-1,-5.1458555E-1,6.0497546E-1,8.739407E-1,4.6997946E-2,8.195196E-4,8.004554E-1,-4.7216496E-1,-3.4947154E-1,2.3602626E0,4.127531E-1,4.5121667E-1,-1.6066382E-2,-6.6900805E-2,-7.0884205E-2,2.0311356E-1,-3.928018E-1,-1.5421289E-1,7.108904E-1,-1.419071E-1,-1.3780664E0,-2.3327429E-2,3.2843703E-1,5.0158185E-1,5.9293814E-2,-5.643852E-1,3.4762387E0,-1.25724515E-2,3.7841052E-1,-2.9276073E-1,-1.7698687E-3,6.559973E-2,1.4164278E-2,-5.649997E-2,-2.2352746E-2,5.8472633E-2,-5.9281465E-2,1.5109035E-2,-4.355345E-2,3.9233766E-2,-1.9160032E-2,-6.789186E-2,4.178869E-2,-4.4244345E-2,6.376508E-2,-8.903562E-3,5.4656476E-2,1.9983405E-3,-6.0100574E-2,1.2514255E-2,-4.1358955E-2,2.7487403E-2,3.9280344E-2,-2.2133475E-2,-2.2816107E-2,-7.8391604E-2,3.580235E-2,-1.309036E-2,-4.9552474E-2,1.8635781E-2,1.2589102E-2,5.8867663E-2,-9.46842E-3,5.5600177E-2,6.445128E-2,-5.8433185E-3,4.5143034E-2,-1.3276017E-2,1.909945E-2,-5.3710967E-2,6.008696E-2,1.3941471E-2,4.1156005E-2,-2.7435347E-2,-6.0584266E-2,1.9585315E-2],"split_indices":[121,7,55,96,295,344,99,290,108,21,269,105,358,249,285,264,378,342,356,275,258,0,302,53,442,36,219,21,285,21,86,79,225,318,52,0,0,71,338,324,50,270,31,0,0,249,249,359,360,275,279,56,0,265,81,0,238,121,0,264,348,0,0,0,0,0,0,0,0,0,0,0,0,0,0,0,0,0,0,0,0,0,0,0,0,0,0,0,0,0,0,0,0,0,0,0,0,0,0,0,0,0,0,0,0,0,0],"split_type":[0,0,0,0,0,0,0,0,0,0,0,0,0,0,0,0,0,0,0,0,0,0,0,0,0,0,0,0,0,0,0,0,0,0,0,0,0,0,0,0,0,0,0,0,0,0,0,0,0,0,0,0,0,0,0,0,0,0,0,0,0,0,0,0,0,0,0,0,0,0,0,0,0,0,0,0,0,0,0,0,0,0,0,0,0,0,0,0,0,0,0,0,0,0,0,0,0,0,0,0,0,0,0,0,0,0,0],"sum_hessian":[5.861053E2,2.8267798E2,3.034273E2,2.5251958E2,3.0158394E1,8.277161E1,2.206557E2,5.5695183E1,1.968244E2,2.4950693E1,5.2077017E0,3.713877E1,4.5632835E1,1.9555656E2,2.5099136E1,1.1621524E1,4.407366E1,2.1582825E0,1.9466612E2,1.7783907E1,7.1667857E0,1.2486209E0,3.9590807E0,2.6217312E1,1.0921457E1,1.751066E1,2.8122173E1,1.8475739E2,1.0799182E1,1.1461001E1,1.3638134E1,8.9914E0,2.6301236E0,7.798649E0,3.6275013E1,1.0988712E0,1.0594112E0,6.3825006E0,1.8828362E2,4.419524E0,1.3364384E1,2.770978E0,4.3958077E0,1.0686575E0,2.890423E0,1.1283161E1,1.4934151E1,8.770796E0,2.150661E0,1.2850214E1,4.660447E0,2.6808138E1,1.3140364E0,1.6940582E2,1.5351556E1,4.611469E0,6.187713E0,1.03410425E1,1.1199586E0,6.3258967E0,7.3122377E0,1.9296463E0,7.0617537E0,1.0392666E0,1.590857E0,4.566485E0,3.2321634E0,3.1042614E1,5.232397E0,3.7512887E0,2.6312122E0,6.5656395E0,1.8171797E2,2.8723993E0,1.5471249E0,1.2361764E1,1.0026197E0,1.758439E0,1.0125391E0,2.3782475E0,2.01756E0,8.885215E0,2.397947E0,1.0728012E1,4.2061386E0,1.3039744E0,7.4668217E0,1.0718017E0,1.0788594E0,8.241307E0,4.6089067E0,1.0402004E0,3.6202466E0,1.877917E0,2.4930222E1,1.6822516E2,1.180675E0,1.3403682E1,1.9478745E0,3.8033497E0,2.3843637E0,8.958424E0,1.3826193E0,4.9808855E0,1.3450112E0,5.816527E0,1.495711E0],"tree_param":{"num_deleted":"0","num_feature":"512","num_nodes":"107","size_leaf_vector":"1"}},{"base_weights":[1.1352387E-2,-9.054063E-1,8.067319E-1,-1.0533967E0,3.9768147E-1,2.0407248E-1,1.1042383E0,-3.9296445E-1,-1.2456489E0,6.957958E-1,-6.584556E-1,4.2257857E-1,-7.361492E-1,2.8528336E-1,1.2124882E0,3.288025E-1,-8.280853E-1,-5.7717663E-1,-1.317313E0,8.760291E-1,-4.004439E-2,2.9241664E-2,-1.0145499E0,-4.366952E-1,6.237136E-1,6.519784E-1,-1.0218374E0,-2.6281986E-1,7.47578E-1,1.2358991E0,5.5156413E-2,-1.7989159E-1,1.0793358E0,-9.581107E-1,6.7435676E-1,-8.5186607E-1,8.7761015E-1,-1.6523291E-1,-1.3476689E0,9.905396E-1,-2.3207193E-2,2.587078E-3,-6.8169795E-2,3.679106E-1,-1.0728233E0,7.1555424E-1,-4.8460102E-1,4.8109494E-2,-2.241317E-3,3.1781954E-1,-1.2754374E0,-1.1118449E0,4.66706E-1,1.001519E0,-2.4513419E-1,1.1494038E-1,1.2494718E0,4.7174674E-2,-4.3510895E-2,-3.311531E-2,3.173924E-2,6.369834E-2,-6.367343E-3,-5.5147197E-2,1.9329373E-2,5.0943103E-2,-2.3139266E-3,-5.567627E-2,2.5995597E-2,4.2849146E-3,5.8615554E-2,-4.823364E-2,4.153002E-2,-6.790453E-2,6.700364E-3,-1.442695E-3,5.6046635E-2,3.597348E-2,-4.1277863E-2,1.3899899E-2,-6.3688025E-2,4.1680884E-2,-8.621164E-3,3.3845585E-2,-4.8751734E-2,-2.7773991E-2,4.610049E-2,-7.34696E-2,9.349863E-3,2.0628316E-2,-8.206984E-2,-4.5089696E-2,5.1742923E-2,5.960272E-2,-6.0313805E-3,-4.8372064E-2,2.7012521E-2,3.8960878E-2,-3.395928E-2,2.009946E-2,6.3335575E-2],"categories":[],"categories_nodes":[],"categories_segments":[],"categories_sizes":[],"default_left":[0,0,0,0,0,0,0,0,0,0,0,0,0,0,0,0,0,0,0,0,0,0,0,0,0,0,0,0,0,0,0,0,0,0,0,0,0,0,0,0,0,0,0,0,0,0,0,0,0,0,0,0,0,0,0,0,0,0,0,0,0,0,0,0,0,0,0,0,0,0,0,0,0,0,0,0,0,0,0,0,0,0,0,0,0,0,0,0,0,0,0,0,0,0,0,0,0,0,0,0,0],"id":12,"left_children":[1,3,5,7,9,11,13,15,17,19,21,23,25,27,29,31,33,35,37,39,-1,-1,41,43,45,47,49,51,53,55,57,59,61,63,65,67,69,71,73,75,-1,-1,-1,77,79,81,83,-1,-1,85,87,89,91,93,95,97,99,-1,-1,-1,-1,-1,-1,-1,-1,-1,-1,-1,-1,-1,-1,-1,-1,-1,-1,-1,-1,-1,-1,-1,-1,-1,-1,-1,-1,-1,-1,-1,-1,-1,-1,-1,-1,-1,-1,-1,-1,-1,-1,-1,-1],"loss_changes":[4.2355008E2,5.2457733E1,5.553807E1,3.0313507E1,9.351664E0,2.16809E1,1.809343E1,1.790952E1,8.219208E0,6.7750807E0,3.5737119E0,1.4969481E1,8.589608E0,6.680875E0,4.901062E0,8.53179E0,7.5463486E0,8.711532E0,5.6706543E0,3.6169252E0,0E0,0E0,2.1530962E0,8.951471E0,7.402725E0,9.122199E-1,6.1669884E0,8.229482E0,3.8106465E0,2.5907593E0,4.6708016E0,5.872776E0,2.2677078E0,6.838011E0,8.913059E-1,6.778223E0,7.5319266E-1,5.1526837E0,2.715149E0,2.594061E0,0E0,0E0,0E0,4.0034695E0,2.9576092E0,6.8972893E0,4.0214067E0,0E0,0E0,2.358849E0,4.3760624E0,5.560135E0,6.6867867E0,2.5936546E0,2.6126258E0,2.2444024E0,2.0837097E0,0E0,0E0,0E0,0E0,0E0,0E0,0E0,0E0,0E0,0E0,0E0,0E0,0E0,0E0,0E0,0E0,0E0,0E0,0E0,0E0,0E0,0E0,0E0,0E0,0E0,0E0,0E0,0E0,0E0,0E0,0E0,0E0,0E0,0E0,0E0,0E0,0E0,0E0,0E0,0E0,0E0,0E0,0E0,0E0],"parents":[2147483647,0,0,1,1,2,2,3,3,4,4,5,5,6,6,7,7,8,8,9,9,10,10,11,11,12,12,13,13,14,14,15,15,16,16,17,17,18,18,19,19,22,22,23,23,24,24,25,25,26,26,27,27,28,28,29,29,30,30,31,31,32,32,33,33,34,34,35,35,36,36,37,37,38,38,39,39,43,43,44,44,45,45,46,46,49,49,50,50,51,51,52,52,53,53,54,54,55,55,56,56],"right_children":[2,4,6,8,10,12,14,16,18,20,22,24,26,28,30,32,34,36,38,40,-1,-1,42,44,46,48,50,52,54,56,58,60,62,64,66,68,70,72,74,76,-1,-1,-1,78,80,82,84,-1,-1,86,88,90,92,94,96,98,100,-1,-1,-1,-1,-1,-1,-1,-1,-1,-1,-1,-1,-1,-1,-1,-1,-1,-1,-1,-1,-1,-1,-1,-1,-1,-1,-1,-1,-1,-1,-1,-1,-1,-1,-1,-1,-1,-1,-1,-1,-1,-1,-1,-1],"split_conditions":[1.137869E0,-2.7106297E-1,-1.8165888E0,-2.9191092E-1,1.2957437E-1,-3.9157483E-1,-1.7725894E0,-1.1448582E0,-1.0065909E-1,2.5153217E-1,-2.0671866E0,-1.5252749E0,-6.917996E-2,4.9875596E-1,2.5448825E0,-1.0383697E0,1.2094392E0,1.359226E0,-2.1461535E0,1.0701957E0,-4.004439E-2,2.9241664E-2,-2.194055E0,1.6568439E0,3.6038685E-1,-7.528126E-1,-7.338958E-1,-9.778845E-1,7.923716E-1,-1.0174369E0,-9.947061E-1,1.348849E0,-9.7161883E-1,-2.154604E-1,8.9656246E-1,-2.2222521E0,1.7835586E-1,-6.5028524E-1,1.9055293E0,2.4642628E-1,-2.3207193E-2,2.587078E-3,-6.8169795E-2,1.4138417E-1,-1.8148687E-1,2.3874314E-1,-5.632638E-1,4.8109494E-2,-2.241317E-3,-1.0468227E0,9.2309916E-1,-8.7179676E-2,-9.5179933E-1,2.1406884E-1,2.5374636E-1,-1.010318E0,-6.7931324E-1,4.7174674E-2,-4.3510895E-2,-3.311531E-2,3.173924E-2,6.369834E-2,-6.367343E-3,-5.5147197E-2,1.9329373E-2,5.0943103E-2,-2.3139266E-3,-5.567627E-2,2.5995597E-2,4.2849146E-3,5.8615554E-2,-4.823364E-2,4.153002E-2,-6.790453E-2,6.700364E-3,-1.442695E-3,5.6046635E-2,3.597348E-2,-4.1277863E-2,1.3899899E-2,-6.3688025E-2,4.1680884E-2,-8.621164E-3,3.3845585E-2,-4.8751734E-2,-2.7773991E-2,4.610049E-2,-7.34696E-2,9.349863E-3,2.0628316E-2,-8.206984E-2,-4.5089696E-2,5.1742923E-2,5.960272E-2,-6.0313805E-3,-4.8372064E-2,2.7012521E-2,3.8960878E-2,-3.395928E-2,2.009946E-2,6.3335575E-2],"split_indices":[121,7,4,96,288,74,0,368,330,165,60,36,330,344,189,23,329,77,69,339,0,0,51,69,264,320,303,319,275,5,96,83,319,4,71,7,232,335,102,283,0,0,0,279,378,330,369,0,0,256,227,250,309,306,185,319,195,0,0,0,0,0,0,0,0,0,0,0,0,0,0,0,0,0,0,0,0,0,0,0,0,0,0,0,0,0,0,0,0,0,0,0,0,0,0,0,0,0,0,0,0],"split_type":[0,0,0,0,0,0,0,0,0,0,0,0,0,0,0,0,0,0,0,0,0,0,0,0,0,0,0,0,0,0,0,0,0,0,0,0,0,0,0,0,0,0,0,0,0,0,0,0,0,0,0,0,0,0,0,0,0,0,0,0,0,0,0,0,0,0,0,0,0,0,0,0,0,0,0,0,0,0,0,0,0,0,0,0,0,0,0,0,0,0,0,0,0,0,0,0,0,0,0,0,0],"sum_hessian":[5.7886346E2,2.688487E2,3.100148E2,2.4160184E2,2.7246862E1,1.03017654E2,2.0699713E2,5.5159573E1,1.8644228E2,2.1515032E1,5.731829E0,8.4037926E1,1.897973E1,2.459106E1,1.8240607E2,2.0838148E1,3.4321426E1,1.8929018E1,1.6751324E2,1.9572735E1,1.942297E0,1.1331445E0,4.598685E0,1.5717912E1,6.8320015E1,3.0206401E0,1.5959091E1,1.1448749E1,1.3142312E1,1.7872292E2,3.6831505E0,1.2873262E1,7.9648848E0,3.1921179E1,2.4002469E0,1.6271172E1,2.6578453E0,4.465868E0,1.6304738E2,1.8272348E1,1.3003867E0,1.3435711E0,3.2551136E0,7.1261063E0,8.591805E0,6.341915E1,4.90086E0,1.8265952E0,1.1940448E0,2.4999146E0,1.3459177E1,5.0488324E0,6.399916E0,1.0458183E1,2.6841288E0,2.2513835E0,1.7647154E2,1.8691914E0,1.8139592E0,8.202905E0,4.670358E0,6.8106127E0,1.1542721E0,2.8979654E1,2.941524E0,1.3439312E0,1.0563155E0,1.3822807E1,2.4483652E0,1.070914E0,1.5869313E0,2.4945621E0,1.9713058E0,1.6199138E2,1.0560011E0,2.1605124E0,1.6111835E1,5.8114047E0,1.3147012E0,1.0628927E0,7.5289125E0,5.6030663E1,7.3884907E0,1.3420948E0,3.5587652E0,1.0552592E0,1.4446555E0,1.1878976E1,1.5802007E0,1.3586437E0,3.6901886E0,1.7052553E0,4.694661E0,8.886925E0,1.5712585E0,1.2774607E0,1.4066682E0,1.2361401E0,1.0152433E0,4.0030684E0,1.7246848E2],"tree_param":{"num_deleted":"0","num_feature":"512","num_nodes":"101","size_leaf_vector":"1"}},{"base_weights":[-1.9715473E-2,8.3035254E-1,-7.608412E-1,1.1275988E0,2.3904435E-1,-1.1369536E0,-1.0413454E-1,1.1562274E0,-4.9149618E-1,-1.8291877E-1,8.5354316E-1,-1.2020857E0,-1.270791E-1,-6.202797E-1,3.235046E-1,1.2184196E0,5.194464E-1,-5.3979315E-2,2.0426134E-2,5.6383973E-1,-4.4589093E-1,-2.9568512E-2,9.533742E-1,-5.74407E-1,-1.2762281E0,8.4016716E-1,-5.779076E-1,-7.5251377E-1,7.674363E-1,7.13862E-1,-5.0115925E-1,-1.4687086E-2,1.2300442E0,7.534417E-1,-6.0318553E-1,9.2529565E-1,-5.2225524E-1,2.7785516E-1,-7.1717304E-1,-3.221145E-2,1.0268598E0,-8.601675E-1,5.484701E-2,-1.2927661E0,2.00949E-2,-4.288647E-3,5.7644036E-2,2.5511945E-2,-8.420424E-1,-8.982044E-1,4.9040532E-1,-2.7858946E-3,5.215996E-2,-5.5283967E-2,9.369648E-1,-8.5717194E-2,-1.347771E0,-6.9370866E-3,6.1999697E-2,4.8551347E-2,-7.6800757E-3,2.456959E-2,-6.711178E-2,-2.0197738E-2,5.726269E-2,2.2119535E-2,-6.1859857E-2,2.7655814E-2,-5.2619267E-2,8.6103175E-3,-4.8597805E-2,5.7084244E-2,-1.075675E-3,5.595875E-3,-5.89631E-2,1.1350866E-3,-6.548006E-2,-6.1623272E-3,-6.1566122E-2,1.0773539E-2,-5.2046843E-2,-3.191183E-2,4.9564183E-2,-3.444505E-2,3.6011092E-2,2.2399195E-2,5.8843054E-2,-2.3119766E-2,3.8932275E-2,-7.240201E-2,-2.0029968E-2],"categories":[],"categories_nodes":[],"categories_segments":[],"categories_sizes":[],"default_left":[0,0,0,0,0,0,0,0,0,0,0,0,0,0,0,0,0,0,0,0,0,0,0,0,0,0,0,0,0,0,0,0,0,0,0,0,0,0,0,0,0,0,0,0,0,0,0,0,0,0,0,0,0,0,0,0,0,0,0,0,0,0,0,0,0,0,0,0,0,0,0,0,0,0,0,0,0,0,0,0,0,0,0,0,0,0,0,0,0,0,0],"id":13,"left_children":[1,3,5,7,9,11,13,15,17,19,21,23,25,27,29,31,33,-1,-1,35,37,-1,39,41,43,45,47,49,51,53,55,-1,57,59,61,63,65,67,69,-1,71,73,-1,75,-1,-1,-1,-1,77,79,81,-1,-1,83,85,87,89,-1,-1,-1,-1,-1,-1,-1,-1,-1,-1,-1,-1,-1,-1,-1,-1,-1,-1,-1,-1,-1,-1,-1,-1,-1,-1,-1,-1,-1,-1,-1,-1,-1,-1],"loss_changes":[3.5938174E2,4.643161E1,7.514958E1,8.75177E0,2.3532757E1,1.2585373E1,2.4937881E1,6.2492676E0,2.436038E0,1.0909616E1,5.883627E0,7.7279053E0,6.08968E0,9.958994E0,2.0299915E1,3.1312103E0,4.974188E0,0E0,0E0,6.205686E0,8.189815E0,0E0,4.756399E0,1.0985344E1,5.0095215E0,1.3999364E0,3.1194122E0,8.984188E0,1.1801307E0,7.337633E0,7.0912485E0,0E0,2.3043365E0,3.0468712E0,3.509515E0,3.765829E0,3.4984293E0,4.908846E0,6.93841E0,0E0,4.085102E0,5.8753595E0,0E0,3.5828857E0,0E0,0E0,0E0,0E0,2.060946E0,6.993412E0,3.796749E0,0E0,0E0,5.651119E0,3.3400478E0,5.18301E0,5.404854E-2,0E0,0E0,0E0,0E0,0E0,0E0,0E0,0E0,0E0,0E0,0E0,0E0,0E0,0E0,0E0,0E0,0E0,0E0,0E0,0E0,0E0,0E0,0E0,0E0,0E0,0E0,0E0,0E0,0E0,0E0,0E0,0E0,0E0,0E0],"parents":[2147483647,0,0,1,1,2,2,3,3,4,4,5,5,6,6,7,7,8,8,9,9,10,10,11,11,12,12,13,13,14,14,15,15,16,16,19,19,20,20,22,22,23,23,24,24,25,25,26,26,27,27,28,28,29,29,30,30,32,32,33,33,34,34,35,35,36,36,37,37,38,38,40,40,41,41,43,43,48,48,49,49,50,50,53,53,54,54,55,55,56,56],"right_children":[2,4,6,8,10,12,14,16,18,20,22,24,26,28,30,32,34,-1,-1,36,38,-1,40,42,44,46,48,50,52,54,56,-1,58,60,62,64,66,68,70,-1,72,74,-1,76,-1,-1,-1,-1,78,80,82,-1,-1,84,86,88,90,-1,-1,-1,-1,-1,-1,-1,-1,-1,-1,-1,-1,-1,-1,-1,-1,-1,-1,-1,-1,-1,-1,-1,-1,-1,-1,-1,-1,-1,-1,-1,-1,-1,-1],"split_conditions":[-1.0198E0,-2.0101082E-1,1.4828697E-1,8.4149384E-1,-4.782467E-3,4.322079E-1,-7.031319E-1,1.334548E0,-1.7667092E-1,-2.7307818E0,-7.5168043E-1,-9.196176E-2,-3.8340956E-1,1.1575929E-1,1.19584024E-1,-1.4215463E0,5.466612E-1,-5.3979315E-2,2.0426134E-2,1.3957083E0,-2.7384615E-1,-2.9568512E-2,-1.3780664E0,-7.200184E-2,2.5083888E0,-8.762947E-1,8.978597E-2,-4.6796244E-1,-5.3306025E-1,4.6191175E-2,1.6817924E0,-1.4687086E-2,-1.9808513E0,1.9390112E-1,-1.306866E0,-3.664505E-1,-6.687696E-1,3.4083387E-1,1.696227E-1,-3.221145E-2,1.4130327E-1,5.182154E-1,5.484701E-2,-2.0339558E-2,2.00949E-2,-4.288647E-3,5.7644036E-2,2.5511945E-2,-3.6690742E-1,-1.7656558E0,-3.5825604E-1,-2.7858946E-3,5.215996E-2,6.480246E-1,6.9273657E-1,-1.21475704E-1,1.9532882E0,-6.9370866E-3,6.1999697E-2,4.8551347E-2,-7.6800757E-3,2.456959E-2,-6.711178E-2,-2.0197738E-2,5.726269E-2,2.2119535E-2,-6.1859857E-2,2.7655814E-2,-5.2619267E-2,8.6103175E-3,-4.8597805E-2,5.7084244E-2,-1.075675E-3,5.595875E-3,-5.89631E-2,1.1350866E-3,-6.548006E-2,-6.1623272E-3,-6.1566122E-2,1.0773539E-2,-5.2046843E-2,-3.191183E-2,4.9564183E-2,-3.444505E-2,3.6011092E-2,2.2399195E-2,5.8843054E-2,-2.3119766E-2,3.8932275E-2,-7.240201E-2,-2.0029968E-2],"split_indices":[66,108,75,39,342,114,114,89,163,43,402,330,258,342,288,120,272,0,0,41,80,0,56,245,11,305,39,315,191,332,123,0,42,381,343,323,303,331,252,0,288,298,0,270,0,0,0,0,348,78,265,0,0,2,79,65,119,0,0,0,0,0,0,0,0,0,0,0,0,0,0,0,0,0,0,0,0,0,0,0,0,0,0,0,0,0,0,0,0,0,0],"split_type":[0,0,0,0,0,0,0,0,0,0,0,0,0,0,0,0,0,0,0,0,0,0,0,0,0,0,0,0,0,0,0,0,0,0,0,0,0,0,0,0,0,0,0,0,0,0,0,0,0,0,0,0,0,0,0,0,0,0,0,0,0,0,0,0,0,0,0,0,0,0,0,0,0,0,0,0,0,0,0,0,0,0,0,0,0,0,0,0,0,0,0],"sum_hessian":[5.684378E2,2.6470358E2,3.0373425E2,1.755493E2,8.915427E1,1.9266112E2,1.1107314E2,1.727801E2,2.7691891E0,5.327429E1,3.5879982E1,1.8080942E2,1.1851701E1,5.0124355E1,6.0948784E1,1.5657462E2,1.6205498E1,1.554157E0,1.2150322E0,1.3576677E1,3.9697613E1,2.000588E0,3.3879395E1,2.0025309E1,1.607841E2,3.49329E0,8.358411E0,4.61815E1,3.9428568E0,4.1458584E1,1.9490202E1,1.0093372E0,1.5556528E2,1.3682461E1,2.5230367E0,1.0297642E1,3.2790356E0,1.0816456E1,2.8881155E1,1.1482935E0,3.27311E1,1.751586E1,2.5094495E0,1.5944244E2,1.3416697E0,1.0651401E0,2.4281497E0,1.4506172E0,6.9077935E0,4.1584457E1,4.59704E0,1.1896609E0,2.7531958E0,9.490911E0,3.1967672E1,1.38131695E1,5.677032E0,1.0292362E0,1.5453604E2,1.097838E1,2.7040806E0,1.1519837E0,1.371053E0,1.3433005E0,8.954341E0,1.5580437E0,1.720992E0,9.446028E0,1.3704286E0,6.5034523E0,2.2377703E1,2.9419827E1,3.311272E0,4.489222E0,1.3026637E1,2.0103312E0,1.5743211E2,2.8893259E0,4.0184674E0,4.666251E0,3.691821E1,1.3287343E0,3.268306E0,5.284749E0,4.206161E0,1.1465312E1,2.0502361E1,9.94452E0,3.8686492E0,4.6554E0,1.0216321E0],"tree_param":{"num_deleted":"0","num_feature":"512","num_nodes":"91","size_leaf_vector":"1"}},{"base_weights":[-2.6618915E-3,-9.0238345E-1,7.03625E-1,-1.0734107E0,-6.104029E-2,1.0129564E0,4.0027816E-2,-1.206308E0,-3.6838052E-1,8.863818E-1,-3.4669346E-1,1.3839802E-1,1.0845891E0,-3.5703248E-1,6.232184E-1,-5.457458E-1,-1.2828152E0,-1.0752265E0,2.2433011E-1,-7.0576626E-3,1.0895739E0,-9.374343E-1,4.6058815E-2,4.9747458E-1,-8.744169E-1,1.1231081E0,-6.9622576E-2,-5.748001E-1,5.6208116E-1,-9.997673E-2,9.3754315E-1,-8.123981E-1,5.157361E-2,-2.8908994E-2,-1.3176526E0,-1.0772967E-3,-1.221926E0,-7.7305704E-1,6.0316473E-1,-8.316532E-3,6.511446E-2,5.4973867E-2,-1.1974444E0,-6.653441E-1,2.9481235E-1,8.0713713E-1,-5.1091415E-1,-5.712963E-2,4.1063814E-3,-2.5271904E-1,1.1409878E0,-9.467038E-1,6.2623703E-1,-8.9399207E-1,-7.605337E-2,1.1242963E0,-4.989067E-1,-9.5219165E-1,2.9923058E-1,1.1121868E0,-5.1372993E-1,2.2442581E-2,-5.3571936E-2,-3.9281994E-2,3.6356933E-2,-6.663484E-2,3.8281025E-3,-6.365597E-3,-6.713646E-2,-5.550797E-2,1.9229544E-2,3.984617E-2,-4.3372337E-2,-4.652157E-2,4.0325873E-2,-6.718893E-2,-1.0897316E-2,2.8375844E-2,-5.9108287E-2,3.8054597E-2,-2.9643787E-2,5.2790135E-2,-1.4792773E-2,2.2276102E-2,-5.2415777E-2,-4.9967676E-2,2.8787246E-2,-2.2438684E-2,5.7629358E-2,-6.285712E-2,-4.4091837E-3,4.5245152E-2,-5.0364216E-3,3.1085575E-2,-5.27167E-2,-2.087009E-2,2.7523056E-2,6.0012132E-2,1.582378E-2,2.8961295E-2,-5.011169E-2,-6.764768E-2,5.1277475E-3,3.4652323E-2,-3.0387286E-2,-1.11077605E-2,5.9111625E-2,2.6644884E-2,-5.6268822E-2],"categories":[],"categories_nodes":[],"categories_segments":[],"categories_sizes":[],"default_left":[0,0,0,0,0,0,0,0,0,0,0,0,0,0,0,0,0,0,0,0,0,0,0,0,0,0,0,0,0,0,0,0,0,0,0,0,0,0,0,0,0,0,0,0,0,0,0,0,0,0,0,0,0,0,0,0,0,0,0,0,0,0,0,0,0,0,0,0,0,0,0,0,0,0,0,0,0,0,0,0,0,0,0,0,0,0,0,0,0,0,0,0,0,0,0,0,0,0,0,0,0,0,0,0,0,0,0,0,0],"id":14,"left_children":[1,3,5,7,9,11,13,15,17,19,21,23,25,27,29,31,33,35,37,-1,39,41,43,45,47,49,51,53,55,57,59,61,-1,63,65,-1,67,69,71,-1,-1,73,75,77,79,81,83,-1,-1,85,87,89,91,93,95,97,99,101,103,105,107,-1,-1,-1,-1,-1,-1,-1,-1,-1,-1,-1,-1,-1,-1,-1,-1,-1,-1,-1,-1,-1,-1,-1,-1,-1,-1,-1,-1,-1,-1,-1,-1,-1,-1,-1,-1,-1,-1,-1,-1,-1,-1,-1,-1,-1,-1,-1,-1],"loss_changes":[3.549516E2,3.528122E1,6.419441E1,1.8677917E1,1.1825282E1,1.3218414E1,2.3502033E1,7.955963E0,1.44053955E1,2.2709794E0,7.7968416E0,6.7272067E0,8.840759E0,1.2421677E1,9.433318E0,9.047077E0,6.634918E0,2.3838215E0,7.7270207E0,0E0,2.5090036E0,3.5215635E0,3.9170647E0,4.5999374E0,1.3485148E0,4.981552E0,5.0523286E0,7.7903404E0,7.7690954E0,4.8270583E0,7.854412E0,6.118614E0,0E0,3.5187685E0,3.2190247E0,0E0,1.6365051E0,2.6622653E0,4.819623E0,0E0,0E0,3.517541E0,1.2344933E0,4.3374753E0,7.186351E0,3.232708E0,2.4012055E0,0E0,0E0,2.5957322E0,3.9935913E0,8.567529E-1,1.0384424E0,7.9479694E0,4.583142E0,1.2359619E-1,3.2276316E0,2.0401106E0,3.9404528E0,2.6894073E0,3.0134776E0,0E0,0E0,0E0,0E0,0E0,0E0,0E0,0E0,0E0,0E0,0E0,0E0,0E0,0E0,0E0,0E0,0E0,0E0,0E0,0E0,0E0,0E0,0E0,0E0,0E0,0E0,0E0,0E0,0E0,0E0,0E0,0E0,0E0,0E0,0E0,0E0,0E0,0E0,0E0,0E0,0E0,0E0,0E0,0E0,0E0,0E0,0E0,0E0],"parents":[2147483647,0,0,1,1,2,2,3,3,4,4,5,5,6,6,7,7,8,8,9,9,10,10,11,11,12,12,13,13,14,14,15,15,16,16,17,17,18,18,20,20,21,21,22,22,23,23,24,24,25,25,26,26,27,27,28,28,29,29,30,30,31,31,33,33,34,34,36,36,37,37,38,38,41,41,42,42,43,43,44,44,45,45,46,46,49,49,50,50,51,51,52,52,53,53,54,54,55,55,56,56,57,57,58,58,59,59,60,60],"right_children":[2,4,6,8,10,12,14,16,18,20,22,24,26,28,30,32,34,36,38,-1,40,42,44,46,48,50,52,54,56,58,60,62,-1,64,66,-1,68,70,72,-1,-1,74,76,78,80,82,84,-1,-1,86,88,90,92,94,96,98,100,102,104,106,108,-1,-1,-1,-1,-1,-1,-1,-1,-1,-1,-1,-1,-1,-1,-1,-1,-1,-1,-1,-1,-1,-1,-1,-1,-1,-1,-1,-1,-1,-1,-1,-1,-1,-1,-1,-1,-1,-1,-1,-1,-1,-1,-1,-1,-1,-1,-1,-1],"split_conditions":[9.269973E-1,-1.2845523E0,4.041271E-1,7.623619E-1,-1.1952635E0,-6.6671026E-1,-1.0503884E-2,-1.0065909E-1,1.0197319E-1,-1.9036426E-1,-1.593662E0,5.5380476E-1,2.4342093E0,3.4179664E0,1.1107017E-1,-1.2316168E-1,-2.2402916E0,-1.5697142E0,-1.3110055E-1,-7.0576626E-3,-2.788725E-1,-1.0337181E0,-4.819796E-3,1.1423793E0,3.9849192E-2,-2.1137686E0,-1.040532E0,2.4011142E0,-1.2398208E-1,-8.5136193E-1,1.6935631E0,1.0424927E-1,5.157361E-2,7.112401E-1,3.948337E0,-1.0772967E-3,3.4714125E-2,-1.5606071E-1,-4.8424974E-1,-8.316532E-3,6.511446E-2,1.7743067E-1,6.996962E-1,-2.4629441E-1,1.1340069E-1,2.2757527E-1,2.500728E-1,-5.712963E-2,4.1063814E-3,-1.024676E-1,-9.409989E-1,1.5476103E-1,2.6844444E0,4.3531784E-1,1.0074866E0,1.4784693E0,-8.777594E-1,3.876677E-1,-8.558326E-1,-3.4371916E-2,-8.5641956E-1,2.2442581E-2,-5.3571936E-2,-3.9281994E-2,3.6356933E-2,-6.663484E-2,3.8281025E-3,-6.365597E-3,-6.713646E-2,-5.550797E-2,1.9229544E-2,3.984617E-2,-4.3372337E-2,-4.652157E-2,4.0325873E-2,-6.718893E-2,-1.0897316E-2,2.8375844E-2,-5.9108287E-2,3.8054597E-2,-2.9643787E-2,5.2790135E-2,-1.4792773E-2,2.2276102E-2,-5.2415777E-2,-4.9967676E-2,2.8787246E-2,-2.2438684E-2,5.7629358E-2,-6.285712E-2,-4.4091837E-3,4.5245152E-2,-5.0364216E-3,3.1085575E-2,-5.27167E-2,-2.087009E-2,2.7523056E-2,6.0012132E-2,1.582378E-2,2.8961295E-2,-5.011169E-2,-6.764768E-2,5.1277475E-3,3.4652323E-2,-3.0387286E-2,-1.11077605E-2,5.9111625E-2,2.6644884E-2,-5.6268822E-2],"split_indices":[121,7,108,75,368,79,342,330,383,227,4,213,73,30,383,245,69,246,327,0,438,238,362,13,482,198,341,121,323,144,27,332,0,351,32,0,302,296,246,0,0,267,321,174,362,330,131,0,0,287,500,156,73,273,506,164,76,77,49,200,320,0,0,0,0,0,0,0,0,0,0,0,0,0,0,0,0,0,0,0,0,0,0,0,0,0,0,0,0,0,0,0,0,0,0,0,0,0,0,0,0,0,0,0,0,0,0,0,0],"split_type":[0,0,0,0,0,0,0,0,0,0,0,0,0,0,0,0,0,0,0,0,0,0,0,0,0,0,0,0,0,0,0,0,0,0,0,0,0,0,0,0,0,0,0,0,0,0,0,0,0,0,0,0,0,0,0,0,0,0,0,0,0,0,0,0,0,0,0,0,0,0,0,0,0,0,0,0,0,0,0,0,0,0,0,0,0,0,0,0,0,0,0,0,0,0,0,0,0,0,0,0,0,0,0,0,0,0,0,0,0],"sum_hessian":[5.5657367E2,2.4464667E2,3.11927E2,2.0308743E2,4.1559227E1,2.1239436E2,9.9532646E1,1.7027907E2,3.2808365E1,9.140396E0,3.241883E1,1.6301582E1,1.9609277E2,5.9446682E1,4.0085964E1,1.8519068E1,1.5176001E2,1.4592168E1,1.8216196E1,1.5594801E0,7.5809164E0,1.2392448E1,2.0026382E1,1.2410477E1,3.8911066E0,1.8978607E2,6.3067045E0,4.8362633E1,1.1084048E1,1.2350952E1,2.7735012E1,1.6255713E1,2.2633543E0,4.151849E0,1.4760815E2,1.9234805E0,1.2668688E1,4.7279468E0,1.3488249E1,1.1296059E0,6.45131E0,2.736464E0,9.655984E0,4.7544785E0,1.5271905E1,9.647451E0,2.7630248E0,2.8871644E0,1.0039421E0,2.2662315E0,1.8751984E2,2.6305737E0,3.6761308E0,2.90064E1,1.9356234E1,7.2059574E0,3.8780906E0,3.4981048E0,8.852847E0,2.496448E1,2.7705326E0,2.6449413E0,1.3610771E1,2.0554252E0,2.0964236E0,1.4607607E2,1.5320954E0,1.4633095E0,1.1205378E1,3.6934507E0,1.0344962E0,1.2322777E1,1.1654718E0,1.0810245E0,1.6554396E0,8.077347E0,1.5786377E0,1.3754048E0,3.3790734E0,1.0106064E1,5.1658406E0,7.9075155E0,1.7399361E0,1.0554914E0,1.7075335E0,1.0834887E0,1.1827427E0,1.0852942E0,1.8643456E2,1.5909699E0,1.0396038E0,2.4805138E0,1.195617E0,2.4996755E0,2.6506723E1,1.2745683E1,6.610551E0,6.1426816E0,1.0632758E0,1.1862768E0,2.691814E0,2.3300495E0,1.168055E0,6.3371015E0,2.5157454E0,1.1368271E0,2.3827652E1,1.0693865E0,1.7011462E0],"tree_param":{"num_deleted":"0","num_feature":"512","num_nodes":"109","size_leaf_vector":"1"}},{"base_weights":[-4.7909617E-3,-8.298375E-1,7.4098456E-1,4.332425E-1,-9.7708136E-1,1.7357142E-1,1.0198848E0,-5.6077994E-2,5.478636E-1,-1.0304905E0,6.943962E-1,5.0710994E-1,-2.3415719E-1,1.6406035E-1,1.1149602E0,6.6210616E-1,-5.4628264E-2,-1.1693509E0,-6.1049277E-1,-1.7419286E-1,5.4874748E-2,-4.094771E-1,7.5896406E-1,1.9781552E-1,-7.590818E-1,-5.4740554E-1,7.7150583E-1,1.1781527E0,2.9385015E-1,-3.8164955E-2,7.7722806E-1,2.1550372E-1,-1.2072619E0,-1.0096574E0,-4.1732874E-2,3.230528E-2,-4.1534834E-2,6.709963E-1,-7.486148E-1,-6.380347E-1,8.701623E-1,-2.7259487E-1,7.047142E-1,-9.100228E-1,2.9021183E-2,5.575206E-1,-1.009381E0,1.0171373E0,-2.1663381E-1,1.2070534E0,4.28038E-1,-8.136297E-1,7.988664E-1,4.6355586E-2,-1.9197278E-4,-3.9954E-2,4.697549E-2,-1.0388871E-2,-6.2337615E-2,2.094789E-2,-5.6907594E-2,2.6740894E-2,-2.8432403E-2,4.6803977E-2,1.3085301E-3,1.7960189E-2,-5.0573736E-2,-5.910319E-2,1.7604955E-2,-1.9446783E-2,4.5956384E-2,1.3782461E-2,-5.285717E-2,-3.2901023E-2,